Language model created by QuickLM on Tue Mar  3 16:20:41 EST 2015
Copyright (c) 1996-2010 Carnegie Mellon University and Alexander I. Rudnicky

The model is in standard ARPA format, designed by Doug Paul while he was at MITRE.

The code that was used to produce this language model is available in Open Source.
Please visit http://www.speech.cs.cmu.edu/tools/ for more information

The (fixed) discount mass is 0.5. The backoffs are computed using the ratio method.
This model based on a corpus of 7 sentences and 12 words

\data\
ngram 1=12
ngram 2=17
ngram 3=13

\1-grams:
-0.8873 </s> -0.3010
-0.8873 <s> -0.2407
-1.7324 BACKWARD -0.2407
-1.7324 CONTINUE -0.2846
-1.7324 FORWARD -0.2407
-1.7324 LEFT -0.2407
-1.4314 MOVE -0.2846
-1.7324 PAUSE -0.2846
-1.7324 RIGHT -0.2407
-1.4314 SPEECH -0.2407
-1.7324 STOP -0.2407
-1.4314 TURN -0.2846

\2-grams:
-1.1461 <s> CONTINUE 0.0000
-0.8451 <s> MOVE 0.0000
-1.1461 <s> PAUSE 0.0000
-1.1461 <s> STOP 0.0000
-0.8451 <s> TURN 0.0000
-0.3010 BACKWARD </s> -0.3010
-0.3010 CONTINUE SPEECH 0.0000
-0.3010 FORWARD </s> -0.3010
-0.3010 LEFT </s> -0.3010
-0.6021 MOVE BACKWARD 0.0000
-0.6021 MOVE FORWARD 0.0000
-0.3010 PAUSE SPEECH 0.0000
-0.3010 RIGHT </s> -0.3010
-0.3010 SPEECH </s> -0.3010
-0.3010 STOP </s> -0.3010
-0.6021 TURN LEFT 0.0000
-0.6021 TURN RIGHT 0.0000

\3-grams:
-0.3010 <s> CONTINUE SPEECH
-0.6021 <s> MOVE BACKWARD
-0.6021 <s> MOVE FORWARD
-0.3010 <s> PAUSE SPEECH
-0.3010 <s> STOP </s>
-0.6021 <s> TURN LEFT
-0.6021 <s> TURN RIGHT
-0.3010 CONTINUE SPEECH </s>
-0.3010 MOVE BACKWARD </s>
-0.3010 MOVE FORWARD </s>
-0.3010 PAUSE SPEECH </s>
-0.3010 TURN LEFT </s>
-0.3010 TURN RIGHT </s>

\end\
