Language model created by QuickLM on Wed Mar 25 23:34:11 EDT 2015
Copyright (c) 1996-2010 Carnegie Mellon University and Alexander I. Rudnicky

The model is in standard ARPA format, designed by Doug Paul while he was at MITRE.

The code that was used to produce this language model is available in Open Source.
Please visit http://www.speech.cs.cmu.edu/tools/ for more information

The (fixed) discount mass is 0.5. The backoffs are computed using the ratio method.
This model based on a corpus of 10 sentences and 16 words

\data\
ngram 1=16
ngram 2=24
ngram 3=20

\1-grams:
-0.9243 </s> -0.3010
-0.9243 <s> -0.2460
-1.6232 ALPHA -0.2460
-1.6232 BETA -0.2460
-1.9243 CANCEL -0.2460
-1.9243 FOWARD -0.2460
-1.4472 GO -0.2852
-1.9243 HOME -0.2460
-1.9243 LEFT -0.2460
-1.6232 MARK -0.2798
-1.9243 MOVE -0.2958
-1.9243 RIGHT -0.2460
-1.6232 SET -0.2906
-1.9243 STOP -0.2460
-1.6232 TO -0.2798
-1.6232 TURN -0.2906

\2-grams:
-1.3010 <s> CANCEL 0.0000
-0.8239 <s> GO 0.0000
-1.3010 <s> MOVE 0.0000
-1.0000 <s> SET 0.0000
-1.3010 <s> STOP 0.0000
-1.0000 <s> TURN 0.0000
-0.3010 ALPHA </s> -0.3010
-0.3010 BETA </s> -0.3010
-0.3010 CANCEL </s> -0.3010
-0.3010 FOWARD </s> -0.3010
-0.7782 GO HOME 0.0000
-0.4771 GO TO 0.0000
-0.3010 HOME </s> -0.3010
-0.3010 LEFT </s> -0.3010
-0.6021 MARK ALPHA 0.0000
-0.6021 MARK BETA 0.0000
-0.3010 MOVE FOWARD 0.0000
-0.3010 RIGHT </s> -0.3010
-0.3010 SET MARK 0.0000
-0.3010 STOP </s> -0.3010
-0.6021 TO ALPHA 0.0000
-0.6021 TO BETA 0.0000
-0.6021 TURN LEFT 0.0000
-0.6021 TURN RIGHT 0.0000

\3-grams:
-0.3010 <s> CANCEL </s>
-0.7782 <s> GO HOME
-0.4771 <s> GO TO
-0.3010 <s> MOVE FOWARD
-0.3010 <s> SET MARK
-0.3010 <s> STOP </s>
-0.6021 <s> TURN LEFT
-0.6021 <s> TURN RIGHT
-0.3010 GO HOME </s>
-0.6021 GO TO ALPHA
-0.6021 GO TO BETA
-0.3010 MARK ALPHA </s>
-0.3010 MARK BETA </s>
-0.3010 MOVE FOWARD </s>
-0.6021 SET MARK ALPHA
-0.6021 SET MARK BETA
-0.3010 TO ALPHA </s>
-0.3010 TO BETA </s>
-0.3010 TURN LEFT </s>
-0.3010 TURN RIGHT </s>

\end\
