Language model created by QuickLM on Wed May  6 11:27:08 EDT 2015
Copyright (c) 1996-2010 Carnegie Mellon University and Alexander I. Rudnicky

The model is in standard ARPA format, designed by Doug Paul while he was at MITRE.

The code that was used to produce this language model is available in Open Source.
Please visit http://www.speech.cs.cmu.edu/tools/ for more information

The (fixed) discount mass is 0.5. The backoffs are computed using the ratio method.
This model based on a corpus of 144 sentences and 139 words

\data\
ngram 1=139
ngram 2=269
ngram 3=159

\1-grams:
-2.9850 + -0.3006
-0.8266 </s> -0.3010
-0.8266 <s> -0.2277
-2.3829 ALPHA -0.2309
-2.9850 AMY -0.2309
-2.9850 ANGELA -0.2309
-2.9850 ANTHONY -0.2309
-2.6839 AS -0.2309
-2.9850 BACKWARD -0.2309
-2.9850 BACKWARDS -0.2309
-2.9850 BARBARA -0.2309
-2.3829 BEEP -0.2299
-2.3829 BETA -0.2309
-2.9850 BETTY -0.2309
-2.9850 BRENDA -0.2309
-2.9850 BRIAN -0.2309
-2.6839 CANCEL -0.2309
-2.9850 CAROL -0.2309
-2.9850 CHARLES -0.2309
-2.6839 CHECK -0.2992
-2.9850 CHRISTOPHER -0.2309
-2.9850 CURRENT -0.3006
-2.9850 CYNTHIA -0.2309
-2.9850 DANIEL -0.2309
-2.9850 DAVID -0.2309
-2.9850 DEBORAH -0.2309
-2.9850 DONALD -0.2309
-2.9850 DONNA -0.2309
-2.9850 DOROTHY -0.2309
-2.9850 EARTH -0.2309
-2.9850 EDWARD -0.2309
-2.9850 EIGHT -0.2309
-2.9850 EIGHTEEN -0.2309
-2.9850 EIGHTY -0.2309
-2.9850 ELEVEN -0.2309
-2.9850 ELIZABETH -0.2309
-2.6839 EXECUTE -0.3001
-2.9850 FAIL -0.2992
-2.9850 FIFTEEN -0.2309
-2.9850 FIFTY -0.2309
-2.9850 FIVE -0.2309
-2.5079 FOR -0.2304
-2.9850 FORTY -0.2309
-2.9850 FOUR -0.2309
-2.9850 FOURTEEN -0.2309
-2.6839 FOWARD -0.2309
-2.9850 FOWARDS -0.2309
-2.9850 FRANK -0.2309
-2.9850 GARY -0.2309
-2.9850 GEORGE -0.2309
-2.9850 GET -0.3006
-2.1399 GO -0.2974
-2.9850 HELEN -0.2309
-2.5079 HOME -0.2309
-2.9850 HUNDRED -0.2309
-2.9850 JAMES -0.2309
-2.9850 JASON -0.2309
-2.9850 JEFFREY -0.2309
-2.9850 JENNIFER -0.2309
-2.9850 JESSICA -0.2309
-2.9850 JOHN -0.2309
-2.9850 JOSE -0.2309
-2.9850 JOSEPH -0.2309
-2.9850 JUPITER -0.2309
-2.9850 KAREN -0.2309
-2.9850 KENNETH -0.2309
-2.9850 KEVIN -0.2309
-2.9850 KIMBERLY -0.2309
-2.9850 LARRY -0.2309
-2.9850 LAURA -0.2309
-2.6839 LEFT -0.2309
-2.9850 LINDA -0.2309
-2.9850 LISA -0.2309
-2.9850 LOCATION -0.2309
-2.6839 LOOK -0.2997
-2.9850 MARGARET -0.2309
-2.9850 MARIA -0.2309
-2.2860 MARK -0.2267
-2.9850 MARS -0.2309
-2.9850 MARY -0.2309
-2.9850 MATTHEW -0.2309
-2.9850 MELISSA -0.2309
-2.9850 MERCURY -0.2309
-2.9850 MICHAEL -0.2309
-2.9850 MICHELLE -0.2309
-2.2068 MOVE -0.2974
-2.9850 NANCY -0.2309
-2.9850 NEPTUNE -0.2309
-2.9850 NINE -0.2309
-2.9850 NINETEEN -0.2309
-2.9850 NINETY -0.2309
-2.9850 ONE -0.2309
-2.9850 PATRICIA -0.2309
-2.9850 PAUL -0.2309
-2.9850 PLUTO -0.2309
-2.6839 PROGRAM -0.2309
-2.9850 QUAN -0.2309
-2.3829 RESOURCE -0.2299
-2.9850 RICHARD -0.2309
-2.5079 RIGHT -0.2309
-2.9850 ROBERT -0.2309
-2.9850 RONALD -0.2309
-2.9850 RUTH -0.2309
-2.9850 SANDRA -0.2309
-2.9850 SARAH -0.2309
-2.9850 SATURN -0.2309
-2.2068 SET -0.2970
-2.9850 SEVEN -0.2309
-2.9850 SEVENTEEN -0.2309
-2.9850 SEVENTY -0.2309
-2.9850 SHARON -0.2309
-2.9850 SHIRLEY -0.2309
-2.9850 SIX -0.2309
-2.9850 SIXTEEN -0.2309
-2.9850 SIXTY -0.2309
-2.9850 STENGEL -0.2309
-2.9850 STEVEN -0.2309
-2.5079 STOP -0.2309
-2.9850 SUCCESS -0.2992
-2.9850 SUSAN -0.2309
-2.9850 TEN -0.2309
-2.9850 THIRTEEN -0.2309
-2.9850 THIRTY -0.2309
-2.9850 THOMAS -0.2309
-2.9850 THOUSAND -0.2309
-2.9850 THREE -0.2309
-2.9850 TIME_EXPRESSION -0.2309
-2.9850 TIMOTHY -0.2309
-2.2860 TO -0.2961
-2.3829 TURN -0.2988
-2.9850 TWELVE -0.2309
-2.9850 TWENTY -0.2309
-2.9850 TWO -0.2309
-2.9850 URANUS -0.2309
-2.6839 VALUE -0.2309
-2.9850 VENUS -0.2309
-2.6839 WAIT -0.2293
-2.9850 WILLIAM -0.2309
-2.6839 WITH -0.3001

\2-grams:
-0.3010 + TIME_EXPRESSION 0.0000
-2.4594 <s> AMY 0.0000
-2.4594 <s> ANGELA 0.0000
-2.4594 <s> ANTHONY 0.0000
-2.4594 <s> BARBARA 0.0000
-2.1584 <s> BEEP -0.1761
-2.4594 <s> BETTY 0.0000
-2.4594 <s> BRENDA 0.0000
-2.4594 <s> BRIAN 0.0000
-2.1584 <s> CANCEL 0.0000
-2.4594 <s> CAROL 0.0000
-2.4594 <s> CHARLES 0.0000
-2.1584 <s> CHECK 0.0000
-2.4594 <s> CHRISTOPHER 0.0000
-2.4594 <s> CYNTHIA 0.0000
-2.4594 <s> DANIEL 0.0000
-2.4594 <s> DAVID 0.0000
-2.4594 <s> DEBORAH 0.0000
-2.4594 <s> DONALD 0.0000
-2.4594 <s> DONNA 0.0000
-2.4594 <s> DOROTHY 0.0000
-2.4594 <s> EARTH 0.0000
-2.4594 <s> EDWARD 0.0000
-2.4594 <s> EIGHT 0.0000
-2.4594 <s> EIGHTEEN 0.0000
-2.4594 <s> EIGHTY 0.0000
-2.4594 <s> ELEVEN 0.0000
-2.4594 <s> ELIZABETH 0.0000
-2.1584 <s> EXECUTE 0.0000
-2.4594 <s> FAIL 0.0000
-2.4594 <s> FIFTEEN 0.0000
-2.4594 <s> FIFTY 0.0000
-2.4594 <s> FIVE 0.0000
-2.4594 <s> FORTY 0.0000
-2.4594 <s> FOUR 0.0000
-2.4594 <s> FOURTEEN 0.0000
-2.4594 <s> FRANK 0.0000
-2.4594 <s> GARY 0.0000
-2.4594 <s> GEORGE 0.0000
-2.4594 <s> GET 0.0000
-1.6143 <s> GO 0.0000
-2.4594 <s> HELEN 0.0000
-2.4594 <s> HUNDRED 0.0000
-2.4594 <s> JAMES 0.0000
-2.4594 <s> JASON 0.0000
-2.4594 <s> JEFFREY 0.0000
-2.4594 <s> JENNIFER 0.0000
-2.4594 <s> JESSICA 0.0000
-2.4594 <s> JOHN 0.0000
-2.4594 <s> JOSE 0.0000
-2.4594 <s> JOSEPH 0.0000
-2.4594 <s> JUPITER 0.0000
-2.4594 <s> KAREN 0.0000
-2.4594 <s> KENNETH 0.0000
-2.4594 <s> KEVIN 0.0000
-2.4594 <s> KIMBERLY 0.0000
-2.4594 <s> LARRY 0.0000
-2.4594 <s> LAURA 0.0000
-2.4594 <s> LINDA 0.0000
-2.4594 <s> LISA 0.0000
-2.1584 <s> LOOK 0.0000
-2.4594 <s> MARGARET 0.0000
-2.4594 <s> MARIA 0.0000
-2.4594 <s> MARK -0.2553
-2.4594 <s> MARS 0.0000
-2.4594 <s> MARY 0.0000
-2.4594 <s> MATTHEW 0.0000
-2.4594 <s> MELISSA 0.0000
-2.4594 <s> MERCURY 0.0000
-2.4594 <s> MICHAEL 0.0000
-2.4594 <s> MICHELLE 0.0000
-1.6812 <s> MOVE 0.0000
-2.4594 <s> NANCY 0.0000
-2.4594 <s> NEPTUNE 0.0000
-2.4594 <s> NINE 0.0000
-2.4594 <s> NINETEEN 0.0000
-2.4594 <s> NINETY 0.0000
-2.4594 <s> ONE 0.0000
-2.4594 <s> PATRICIA 0.0000
-2.4594 <s> PAUL 0.0000
-2.4594 <s> PLUTO 0.0000
-2.4594 <s> QUAN 0.0000
-2.4594 <s> RICHARD 0.0000
-2.4594 <s> ROBERT 0.0000
-2.4594 <s> RONALD 0.0000
-2.4594 <s> RUTH 0.0000
-2.4594 <s> SANDRA 0.0000
-2.4594 <s> SARAH 0.0000
-2.4594 <s> SATURN 0.0000
-1.6812 <s> SET 0.0000
-2.4594 <s> SEVEN 0.0000
-2.4594 <s> SEVENTEEN 0.0000
-2.4594 <s> SEVENTY 0.0000
-2.4594 <s> SHARON 0.0000
-2.4594 <s> SHIRLEY 0.0000
-2.4594 <s> SIX 0.0000
-2.4594 <s> SIXTEEN 0.0000
-2.4594 <s> SIXTY 0.0000
-2.4594 <s> STENGEL 0.0000
-2.4594 <s> STEVEN 0.0000
-1.9823 <s> STOP 0.0000
-2.4594 <s> SUCCESS 0.0000
-2.4594 <s> SUSAN 0.0000
-2.4594 <s> TEN 0.0000
-2.4594 <s> THIRTEEN 0.0000
-2.4594 <s> THIRTY 0.0000
-2.4594 <s> THOMAS 0.0000
-2.4594 <s> THOUSAND 0.0000
-2.4594 <s> THREE 0.0000
-2.4594 <s> TIMOTHY 0.0000
-1.8573 <s> TURN 0.0000
-2.4594 <s> TWELVE 0.0000
-2.4594 <s> TWENTY 0.0000
-2.4594 <s> TWO 0.0000
-2.4594 <s> URANUS 0.0000
-2.4594 <s> VENUS 0.0000
-2.1584 <s> WAIT 0.0000
-2.4594 <s> WILLIAM 0.0000
-0.3010 ALPHA </s> -0.3010
-0.3010 AMY </s> -0.3010
-0.3010 ANGELA </s> -0.3010
-0.3010 ANTHONY </s> -0.3010
-0.3010 AS </s> -0.3010
-0.3010 BACKWARD </s> -0.3010
-0.3010 BACKWARDS </s> -0.3010
-0.3010 BARBARA </s> -0.3010
-0.6021 BEEP </s> -0.3010
-0.6021 BEEP WITH 0.0000
-0.3010 BETA </s> -0.3010
-0.3010 BETTY </s> -0.3010
-0.3010 BRENDA </s> -0.3010
-0.3010 BRIAN </s> -0.3010
-0.3010 CANCEL </s> -0.3010
-0.3010 CAROL </s> -0.3010
-0.3010 CHARLES </s> -0.3010
-0.3010 CHECK RESOURCE 0.0000
-0.3010 CHRISTOPHER </s> -0.3010
-0.3010 CURRENT LOCATION 0.0000
-0.3010 CYNTHIA </s> -0.3010
-0.3010 DANIEL </s> -0.3010
-0.3010 DAVID </s> -0.3010
-0.3010 DEBORAH </s> -0.3010
-0.3010 DONALD </s> -0.3010
-0.3010 DONNA </s> -0.3010
-0.3010 DOROTHY </s> -0.3010
-0.3010 EARTH </s> -0.3010
-0.3010 EDWARD </s> -0.3010
-0.3010 EIGHT </s> -0.3010
-0.3010 EIGHTEEN </s> -0.3010
-0.3010 EIGHTY </s> -0.3010
-0.3010 ELEVEN </s> -0.3010
-0.3010 ELIZABETH </s> -0.3010
-0.3010 EXECUTE PROGRAM 0.0000
-0.3010 FAIL BEEP -0.1761
-0.3010 FIFTEEN </s> -0.3010
-0.3010 FIFTY </s> -0.3010
-0.3010 FIVE </s> -0.3010
-0.7782 FOR + 0.0000
-0.4771 FOR </s> -0.3010
-0.3010 FORTY </s> -0.3010
-0.3010 FOUR </s> -0.3010
-0.3010 FOURTEEN </s> -0.3010
-0.3010 FOWARD </s> -0.3010
-0.3010 FOWARDS </s> -0.3010
-0.3010 FRANK </s> -0.3010
-0.3010 GARY </s> -0.3010
-0.3010 GEORGE </s> -0.3010
-0.3010 GET CURRENT 0.0000
-0.8451 GO HOME 0.0000
-0.4472 GO TO 0.0000
-0.3010 HELEN </s> -0.3010
-0.3010 HOME </s> -0.3010
-0.3010 HUNDRED </s> -0.3010
-0.3010 JAMES </s> -0.3010
-0.3010 JASON </s> -0.3010
-0.3010 JEFFREY </s> -0.3010
-0.3010 JENNIFER </s> -0.3010
-0.3010 JESSICA </s> -0.3010
-0.3010 JOHN </s> -0.3010
-0.3010 JOSE </s> -0.3010
-0.3010 JOSEPH </s> -0.3010
-0.3010 JUPITER </s> -0.3010
-0.3010 KAREN </s> -0.3010
-0.3010 KENNETH </s> -0.3010
-0.3010 KEVIN </s> -0.3010
-0.3010 KIMBERLY </s> -0.3010
-0.3010 LARRY </s> -0.3010
-0.3010 LAURA </s> -0.3010
-0.3010 LEFT </s> -0.3010
-0.3010 LINDA </s> -0.3010
-0.3010 LISA </s> -0.3010
-0.3010 LOCATION </s> -0.3010
-0.3010 LOOK FOR -0.1249
-0.3010 MARGARET </s> -0.3010
-0.3010 MARIA </s> -0.3010
-1.0000 MARK </s> -0.3010
-0.6990 MARK ALPHA 0.0000
-0.6990 MARK BETA 0.0000
-0.3010 MARS </s> -0.3010
-0.3010 MARY </s> -0.3010
-0.3010 MATTHEW </s> -0.3010
-0.3010 MELISSA </s> -0.3010
-0.3010 MERCURY </s> -0.3010
-0.3010 MICHAEL </s> -0.3010
-0.3010 MICHELLE </s> -0.3010
-1.0792 MOVE BACKWARD 0.0000
-1.0792 MOVE BACKWARDS 0.0000
-0.7782 MOVE FOWARD 0.0000
-1.0792 MOVE FOWARDS 0.0000
-1.0792 MOVE RIGHT 0.0000
-0.3010 NANCY </s> -0.3010
-0.3010 NEPTUNE </s> -0.3010
-0.3010 NINE </s> -0.3010
-0.3010 NINETEEN </s> -0.3010
-0.3010 NINETY </s> -0.3010
-0.3010 ONE </s> -0.3010
-0.3010 PATRICIA </s> -0.3010
-0.3010 PAUL </s> -0.3010
-0.3010 PLUTO </s> -0.3010
-0.3010 PROGRAM </s> -0.3010
-0.3010 QUAN </s> -0.3010
-0.6021 RESOURCE </s> -0.3010
-0.6021 RESOURCE AS 0.0000
-0.3010 RICHARD </s> -0.3010
-0.3010 RIGHT </s> -0.3010
-0.3010 ROBERT </s> -0.3010
-0.3010 RONALD </s> -0.3010
-0.3010 RUTH </s> -0.3010
-0.3010 SANDRA </s> -0.3010
-0.3010 SARAH </s> -0.3010
-0.3010 SATURN </s> -0.3010
-0.4771 SET MARK -0.0792
-0.7782 SET RESOURCE 0.0000
-0.3010 SEVEN </s> -0.3010
-0.3010 SEVENTEEN </s> -0.3010
-0.3010 SEVENTY </s> -0.3010
-0.3010 SHARON </s> -0.3010
-0.3010 SHIRLEY </s> -0.3010
-0.3010 SIX </s> -0.3010
-0.3010 SIXTEEN </s> -0.3010
-0.3010 SIXTY </s> -0.3010
-0.3010 STENGEL </s> -0.3010
-0.3010 STEVEN </s> -0.3010
-0.3010 STOP </s> -0.3010
-0.3010 SUCCESS BEEP -0.1761
-0.3010 SUSAN </s> -0.3010
-0.3010 TEN </s> -0.3010
-0.3010 THIRTEEN </s> -0.3010
-0.3010 THIRTY </s> -0.3010
-0.3010 THOMAS </s> -0.3010
-0.3010 THOUSAND </s> -0.3010
-0.3010 THREE </s> -0.3010
-0.3010 TIME_EXPRESSION </s> -0.3010
-0.3010 TIMOTHY </s> -0.3010
-0.6990 TO ALPHA 0.0000
-0.6990 TO BETA 0.0000
-1.0000 TO HOME 0.0000
-0.6021 TURN LEFT 0.0000
-0.6021 TURN RIGHT 0.0000
-0.3010 TWELVE </s> -0.3010
-0.3010 TWENTY </s> -0.3010
-0.3010 TWO </s> -0.3010
-0.3010 URANUS </s> -0.3010
-0.3010 VALUE </s> -0.3010
-0.3010 VENUS </s> -0.3010
-0.6021 WAIT </s> -0.3010
-0.6021 WAIT FOR -0.2218
-0.3010 WILLIAM </s> -0.3010
-0.3010 WITH VALUE 0.0000

\3-grams:
-0.3010 + TIME_EXPRESSION </s>
-0.3010 <s> AMY </s>
-0.3010 <s> ANGELA </s>
-0.3010 <s> ANTHONY </s>
-0.3010 <s> BARBARA </s>
-0.3010 <s> BEEP WITH
-0.3010 <s> BETTY </s>
-0.3010 <s> BRENDA </s>
-0.3010 <s> BRIAN </s>
-0.3010 <s> CANCEL </s>
-0.3010 <s> CAROL </s>
-0.3010 <s> CHARLES </s>
-0.3010 <s> CHECK RESOURCE
-0.3010 <s> CHRISTOPHER </s>
-0.3010 <s> CYNTHIA </s>
-0.3010 <s> DANIEL </s>
-0.3010 <s> DAVID </s>
-0.3010 <s> DEBORAH </s>
-0.3010 <s> DONALD </s>
-0.3010 <s> DONNA </s>
-0.3010 <s> DOROTHY </s>
-0.3010 <s> EARTH </s>
-0.3010 <s> EDWARD </s>
-0.3010 <s> EIGHT </s>
-0.3010 <s> EIGHTEEN </s>
-0.3010 <s> EIGHTY </s>
-0.3010 <s> ELEVEN </s>
-0.3010 <s> ELIZABETH </s>
-0.3010 <s> EXECUTE PROGRAM
-0.3010 <s> FAIL BEEP
-0.3010 <s> FIFTEEN </s>
-0.3010 <s> FIFTY </s>
-0.3010 <s> FIVE </s>
-0.3010 <s> FORTY </s>
-0.3010 <s> FOUR </s>
-0.3010 <s> FOURTEEN </s>
-0.3010 <s> FRANK </s>
-0.3010 <s> GARY </s>
-0.3010 <s> GEORGE </s>
-0.3010 <s> GET CURRENT
-0.8451 <s> GO HOME
-0.4472 <s> GO TO
-0.3010 <s> HELEN </s>
-0.3010 <s> HUNDRED </s>
-0.3010 <s> JAMES </s>
-0.3010 <s> JASON </s>
-0.3010 <s> JEFFREY </s>
-0.3010 <s> JENNIFER </s>
-0.3010 <s> JESSICA </s>
-0.3010 <s> JOHN </s>
-0.3010 <s> JOSE </s>
-0.3010 <s> JOSEPH </s>
-0.3010 <s> JUPITER </s>
-0.3010 <s> KAREN </s>
-0.3010 <s> KENNETH </s>
-0.3010 <s> KEVIN </s>
-0.3010 <s> KIMBERLY </s>
-0.3010 <s> LARRY </s>
-0.3010 <s> LAURA </s>
-0.3010 <s> LINDA </s>
-0.3010 <s> LISA </s>
-0.3010 <s> LOOK FOR
-0.3010 <s> MARGARET </s>
-0.3010 <s> MARIA </s>
-0.3010 <s> MARK </s>
-0.3010 <s> MARS </s>
-0.3010 <s> MARY </s>
-0.3010 <s> MATTHEW </s>
-0.3010 <s> MELISSA </s>
-0.3010 <s> MERCURY </s>
-0.3010 <s> MICHAEL </s>
-0.3010 <s> MICHELLE </s>
-1.0792 <s> MOVE BACKWARD
-1.0792 <s> MOVE BACKWARDS
-0.7782 <s> MOVE FOWARD
-1.0792 <s> MOVE FOWARDS
-1.0792 <s> MOVE RIGHT
-0.3010 <s> NANCY </s>
-0.3010 <s> NEPTUNE </s>
-0.3010 <s> NINE </s>
-0.3010 <s> NINETEEN </s>
-0.3010 <s> NINETY </s>
-0.3010 <s> ONE </s>
-0.3010 <s> PATRICIA </s>
-0.3010 <s> PAUL </s>
-0.3010 <s> PLUTO </s>
-0.3010 <s> QUAN </s>
-0.3010 <s> RICHARD </s>
-0.3010 <s> ROBERT </s>
-0.3010 <s> RONALD </s>
-0.3010 <s> RUTH </s>
-0.3010 <s> SANDRA </s>
-0.3010 <s> SARAH </s>
-0.3010 <s> SATURN </s>
-0.4771 <s> SET MARK
-0.7782 <s> SET RESOURCE
-0.3010 <s> SEVEN </s>
-0.3010 <s> SEVENTEEN </s>
-0.3010 <s> SEVENTY </s>
-0.3010 <s> SHARON </s>
-0.3010 <s> SHIRLEY </s>
-0.3010 <s> SIX </s>
-0.3010 <s> SIXTEEN </s>
-0.3010 <s> SIXTY </s>
-0.3010 <s> STENGEL </s>
-0.3010 <s> STEVEN </s>
-0.3010 <s> STOP </s>
-0.3010 <s> SUCCESS BEEP
-0.3010 <s> SUSAN </s>
-0.3010 <s> TEN </s>
-0.3010 <s> THIRTEEN </s>
-0.3010 <s> THIRTY </s>
-0.3010 <s> THOMAS </s>
-0.3010 <s> THOUSAND </s>
-0.3010 <s> THREE </s>
-0.3010 <s> TIMOTHY </s>
-0.6021 <s> TURN LEFT
-0.6021 <s> TURN RIGHT
-0.3010 <s> TWELVE </s>
-0.3010 <s> TWENTY </s>
-0.3010 <s> TWO </s>
-0.3010 <s> URANUS </s>
-0.3010 <s> VENUS </s>
-0.6021 <s> WAIT </s>
-0.6021 <s> WAIT FOR
-0.3010 <s> WILLIAM </s>
-0.3010 BEEP WITH VALUE
-0.6021 CHECK RESOURCE </s>
-0.6021 CHECK RESOURCE AS
-0.3010 CURRENT LOCATION </s>
-0.3010 EXECUTE PROGRAM </s>
-0.3010 FAIL BEEP </s>
-0.3010 FOR + TIME_EXPRESSION
-0.3010 GET CURRENT LOCATION
-0.3010 GO HOME </s>
-0.6990 GO TO ALPHA
-0.6990 GO TO BETA
-1.0000 GO TO HOME
-0.3010 LOOK FOR </s>
-0.3010 MARK ALPHA </s>
-0.3010 MARK BETA </s>
-0.3010 MOVE BACKWARD </s>
-0.3010 MOVE BACKWARDS </s>
-0.3010 MOVE FOWARD </s>
-0.3010 MOVE FOWARDS </s>
-0.3010 MOVE RIGHT </s>
-0.3010 RESOURCE AS </s>
-0.6021 SET MARK ALPHA
-0.6021 SET MARK BETA
-0.6021 SET RESOURCE </s>
-0.6021 SET RESOURCE AS
-0.3010 SUCCESS BEEP </s>
-0.3010 TO ALPHA </s>
-0.3010 TO BETA </s>
-0.3010 TO HOME </s>
-0.3010 TURN LEFT </s>
-0.3010 TURN RIGHT </s>
-0.3010 WAIT FOR +
-0.3010 WITH VALUE </s>

\end\
