Language model created by QuickLM on Sat May  9 13:37:54 EDT 2015
Copyright (c) 1996-2010 Carnegie Mellon University and Alexander I. Rudnicky

The model is in standard ARPA format, designed by Doug Paul while he was at MITRE.

The code that was used to produce this language model is available in Open Source.
Please visit http://www.speech.cs.cmu.edu/tools/ for more information

The (fixed) discount mass is 0.5. The backoffs are computed using the ratio method.
This model based on a corpus of 92 sentences and 88 words

\data\
ngram 1=88
ngram 2=166
ngram 3=107

\1-grams:
-0.8491 </s> -0.3010
-0.8491 <s> -0.2332
-2.2109 ALPHA -0.2348
-2.8129 AND -0.2348
-2.5119 AS -0.2348
-2.8129 BACKWARD -0.2348
-2.8129 BACKWARDS -0.2348
-2.2109 BEEP -0.2332
-2.2109 BETA -0.2348
-2.8129 BILLION -0.2348
-2.8129 CACHE -0.2348
-2.5119 CANCEL -0.2348
-2.5119 CHECK -0.2983
-2.8129 CLEAR -0.2348
-2.8129 CURRENT -0.3004
-2.8129 DAY -0.2348
-2.8129 DAYS -0.2348
-2.8129 EIGHT -0.2348
-2.8129 EIGHTEEN -0.2348
-2.8129 EIGHTY -0.2348
-2.8129 ELEVEN -0.2348
-2.8129 END -0.2348
-2.5119 EXECUTE -0.2997
-2.8129 FAIL -0.2983
-2.8129 FIFTEEN -0.2348
-2.8129 FIFTY -0.2348
-2.8129 FIVE -0.2348
-2.3358 FOR -0.2348
-2.8129 FORTY -0.2348
-2.8129 FOUR -0.2348
-2.8129 FOURTEEN -0.2348
-2.5119 FOWARD -0.2348
-2.8129 FOWARDS -0.2348
-2.8129 GET -0.3004
-1.9678 GO -0.2957
-2.3358 HOME -0.2348
-2.8129 HOUR -0.2348
-2.8129 HOURS -0.2348
-2.8129 HUNDRED -0.2348
-2.5119 LEFT -0.2348
-2.8129 LOCATION -0.2348
-2.5119 LOOK -0.2990
-2.2109 MARK -0.2957
-2.8129 MILLION -0.2348
-2.8129 MINUTE -0.2348
-2.8129 MINUTES -0.2348
-2.8129 MONTH -0.2348
-2.8129 MONTHS -0.2348
-2.0348 MOVE -0.2957
-2.8129 NINE -0.2348
-2.8129 NINETEEN -0.2348
-2.8129 NINETY -0.2348
-2.8129 NOW -0.2348
-2.8129 ONE -0.2348
-2.5119 PROGRAM -0.2348
-2.8129 QUAN -0.2348
-2.2109 RESOURCE -0.2332
-2.3358 RIGHT -0.2348
-2.8129 SECOND -0.2348
-2.8129 SECONDS -0.2348
-2.8129 SENTINEL -0.2348
-2.0348 SET -0.2957
-2.8129 SEVEN -0.2348
-2.8129 SEVENTEEN -0.2348
-2.8129 SEVENTY -0.2348
-2.8129 SIX -0.2348
-2.8129 SIXTEEN -0.2348
-2.8129 SIXTY -0.2348
-2.8129 START -0.2348
-2.8129 STOP -0.2348
-2.8129 SUCCESS -0.2983
-2.8129 TEN -0.2348
-2.8129 THEN -0.2348
-2.8129 THIRTEEN -0.2348
-2.8129 THIRTY -0.2348
-2.8129 THOUSAND -0.2348
-2.8129 THREE -0.2348
-2.1139 TO -0.2936
-2.8129 TRILLION -0.2348
-2.2109 TURN -0.2977
-2.8129 TWELVE -0.2348
-2.8129 TWENTY -0.2348
-2.8129 TWO -0.2348
-2.5119 VALUE -0.2348
-2.5119 WAIT -0.2324
-2.5119 WITH -0.2997
-2.8129 YEAR -0.2348
-2.8129 YEARS -0.2348

\2-grams:
-2.2648 <s> AND 0.0000
-1.9638 <s> BEEP -0.1761
-2.2648 <s> BILLION 0.0000
-2.2648 <s> CACHE 0.0000
-1.9638 <s> CANCEL 0.0000
-1.9638 <s> CHECK 0.0000
-2.2648 <s> CLEAR 0.0000
-2.2648 <s> DAY 0.0000
-2.2648 <s> DAYS 0.0000
-2.2648 <s> EIGHT 0.0000
-2.2648 <s> EIGHTEEN 0.0000
-2.2648 <s> EIGHTY 0.0000
-2.2648 <s> ELEVEN 0.0000
-2.2648 <s> END 0.0000
-1.9638 <s> EXECUTE 0.0000
-2.2648 <s> FAIL 0.0000
-2.2648 <s> FIFTEEN 0.0000
-2.2648 <s> FIFTY 0.0000
-2.2648 <s> FIVE 0.0000
-2.2648 <s> FORTY 0.0000
-2.2648 <s> FOUR 0.0000
-2.2648 <s> FOURTEEN 0.0000
-2.2648 <s> GET 0.0000
-1.4197 <s> GO 0.0000
-2.2648 <s> HOUR 0.0000
-2.2648 <s> HOURS 0.0000
-2.2648 <s> HUNDRED 0.0000
-1.9638 <s> LOOK 0.0000
-2.2648 <s> MILLION 0.0000
-2.2648 <s> MINUTE 0.0000
-2.2648 <s> MINUTES 0.0000
-2.2648 <s> MONTH 0.0000
-2.2648 <s> MONTHS 0.0000
-1.4867 <s> MOVE 0.0000
-2.2648 <s> NINE 0.0000
-2.2648 <s> NINETEEN 0.0000
-2.2648 <s> NINETY 0.0000
-2.2648 <s> NOW 0.0000
-2.2648 <s> ONE 0.0000
-2.2648 <s> QUAN 0.0000
-2.2648 <s> SECOND 0.0000
-2.2648 <s> SECONDS 0.0000
-2.2648 <s> SENTINEL 0.0000
-1.4867 <s> SET 0.0000
-2.2648 <s> SEVEN 0.0000
-2.2648 <s> SEVENTEEN 0.0000
-2.2648 <s> SEVENTY 0.0000
-2.2648 <s> SIX 0.0000
-2.2648 <s> SIXTEEN 0.0000
-2.2648 <s> SIXTY 0.0000
-2.2648 <s> START 0.0000
-2.2648 <s> STOP 0.0000
-2.2648 <s> SUCCESS 0.0000
-2.2648 <s> TEN 0.0000
-2.2648 <s> THEN 0.0000
-2.2648 <s> THIRTEEN 0.0000
-2.2648 <s> THIRTY 0.0000
-2.2648 <s> THOUSAND 0.0000
-2.2648 <s> THREE 0.0000
-2.2648 <s> TRILLION 0.0000
-1.6628 <s> TURN 0.0000
-2.2648 <s> TWELVE 0.0000
-2.2648 <s> TWENTY 0.0000
-2.2648 <s> TWO 0.0000
-1.9638 <s> WAIT 0.0000
-2.2648 <s> YEAR 0.0000
-2.2648 <s> YEARS 0.0000
-0.3010 ALPHA </s> -0.3010
-0.3010 AND </s> -0.3010
-0.3010 AS </s> -0.3010
-0.3010 BACKWARD </s> -0.3010
-0.3010 BACKWARDS </s> -0.3010
-0.6021 BEEP </s> -0.3010
-0.6021 BEEP WITH 0.0000
-0.3010 BETA </s> -0.3010
-0.3010 BILLION </s> -0.3010
-0.3010 CACHE </s> -0.3010
-0.3010 CANCEL </s> -0.3010
-0.3010 CHECK RESOURCE 0.0000
-0.3010 CLEAR </s> -0.3010
-0.3010 CURRENT LOCATION 0.0000
-0.3010 DAY </s> -0.3010
-0.3010 DAYS </s> -0.3010
-0.3010 EIGHT </s> -0.3010
-0.3010 EIGHTEEN </s> -0.3010
-0.3010 EIGHTY </s> -0.3010
-0.3010 ELEVEN </s> -0.3010
-0.3010 END </s> -0.3010
-0.3010 EXECUTE PROGRAM 0.0000
-0.3010 FAIL BEEP -0.1761
-0.3010 FIFTEEN </s> -0.3010
-0.3010 FIFTY </s> -0.3010
-0.3010 FIVE </s> -0.3010
-0.3010 FOR </s> -0.3010
-0.3010 FORTY </s> -0.3010
-0.3010 FOUR </s> -0.3010
-0.3010 FOURTEEN </s> -0.3010
-0.3010 FOWARD </s> -0.3010
-0.3010 FOWARDS </s> -0.3010
-0.3010 GET CURRENT 0.0000
-0.8451 GO HOME 0.0000
-0.4472 GO TO 0.0000
-0.3010 HOME </s> -0.3010
-0.3010 HOUR </s> -0.3010
-0.3010 HOURS </s> -0.3010
-0.3010 HUNDRED </s> -0.3010
-0.3010 LEFT </s> -0.3010
-0.3010 LOCATION </s> -0.3010
-0.3010 LOOK FOR 0.0000
-0.6021 MARK ALPHA 0.0000
-0.6021 MARK BETA 0.0000
-0.3010 MILLION </s> -0.3010
-0.3010 MINUTE </s> -0.3010
-0.3010 MINUTES </s> -0.3010
-0.3010 MONTH </s> -0.3010
-0.3010 MONTHS </s> -0.3010
-1.0792 MOVE BACKWARD 0.0000
-1.0792 MOVE BACKWARDS 0.0000
-0.7782 MOVE FOWARD 0.0000
-1.0792 MOVE FOWARDS 0.0000
-1.0792 MOVE RIGHT 0.0000
-0.3010 NINE </s> -0.3010
-0.3010 NINETEEN </s> -0.3010
-0.3010 NINETY </s> -0.3010
-0.3010 NOW </s> -0.3010
-0.3010 ONE </s> -0.3010
-0.3010 PROGRAM </s> -0.3010
-0.3010 QUAN </s> -0.3010
-0.6021 RESOURCE </s> -0.3010
-0.6021 RESOURCE AS 0.0000
-0.3010 RIGHT </s> -0.3010
-0.3010 SECOND </s> -0.3010
-0.3010 SECONDS </s> -0.3010
-0.3010 SENTINEL </s> -0.3010
-0.4771 SET MARK 0.0000
-0.7782 SET RESOURCE 0.0000
-0.3010 SEVEN </s> -0.3010
-0.3010 SEVENTEEN </s> -0.3010
-0.3010 SEVENTY </s> -0.3010
-0.3010 SIX </s> -0.3010
-0.3010 SIXTEEN </s> -0.3010
-0.3010 SIXTY </s> -0.3010
-0.3010 START </s> -0.3010
-0.3010 STOP </s> -0.3010
-0.3010 SUCCESS BEEP -0.1761
-0.3010 TEN </s> -0.3010
-0.3010 THEN </s> -0.3010
-0.3010 THIRTEEN </s> -0.3010
-0.3010 THIRTY </s> -0.3010
-0.3010 THOUSAND </s> -0.3010
-0.3010 THREE </s> -0.3010
-0.6990 TO ALPHA 0.0000
-0.6990 TO BETA 0.0000
-1.0000 TO HOME 0.0000
-0.3010 TRILLION </s> -0.3010
-0.6021 TURN LEFT 0.0000
-0.6021 TURN RIGHT 0.0000
-0.3010 TWELVE </s> -0.3010
-0.3010 TWENTY </s> -0.3010
-0.3010 TWO </s> -0.3010
-0.3010 VALUE </s> -0.3010
-0.6021 WAIT </s> -0.3010
-0.6021 WAIT FOR 0.0000
-0.3010 WITH VALUE 0.0000
-0.3010 YEAR </s> -0.3010
-0.3010 YEARS </s> -0.3010

\3-grams:
-0.3010 <s> AND </s>
-0.3010 <s> BEEP WITH
-0.3010 <s> BILLION </s>
-0.3010 <s> CACHE </s>
-0.3010 <s> CANCEL </s>
-0.3010 <s> CHECK RESOURCE
-0.3010 <s> CLEAR </s>
-0.3010 <s> DAY </s>
-0.3010 <s> DAYS </s>
-0.3010 <s> EIGHT </s>
-0.3010 <s> EIGHTEEN </s>
-0.3010 <s> EIGHTY </s>
-0.3010 <s> ELEVEN </s>
-0.3010 <s> END </s>
-0.3010 <s> EXECUTE PROGRAM
-0.3010 <s> FAIL BEEP
-0.3010 <s> FIFTEEN </s>
-0.3010 <s> FIFTY </s>
-0.3010 <s> FIVE </s>
-0.3010 <s> FORTY </s>
-0.3010 <s> FOUR </s>
-0.3010 <s> FOURTEEN </s>
-0.3010 <s> GET CURRENT
-0.8451 <s> GO HOME
-0.4472 <s> GO TO
-0.3010 <s> HOUR </s>
-0.3010 <s> HOURS </s>
-0.3010 <s> HUNDRED </s>
-0.3010 <s> LOOK FOR
-0.3010 <s> MILLION </s>
-0.3010 <s> MINUTE </s>
-0.3010 <s> MINUTES </s>
-0.3010 <s> MONTH </s>
-0.3010 <s> MONTHS </s>
-1.0792 <s> MOVE BACKWARD
-1.0792 <s> MOVE BACKWARDS
-0.7782 <s> MOVE FOWARD
-1.0792 <s> MOVE FOWARDS
-1.0792 <s> MOVE RIGHT
-0.3010 <s> NINE </s>
-0.3010 <s> NINETEEN </s>
-0.3010 <s> NINETY </s>
-0.3010 <s> NOW </s>
-0.3010 <s> ONE </s>
-0.3010 <s> QUAN </s>
-0.3010 <s> SECOND </s>
-0.3010 <s> SECONDS </s>
-0.3010 <s> SENTINEL </s>
-0.4771 <s> SET MARK
-0.7782 <s> SET RESOURCE
-0.3010 <s> SEVEN </s>
-0.3010 <s> SEVENTEEN </s>
-0.3010 <s> SEVENTY </s>
-0.3010 <s> SIX </s>
-0.3010 <s> SIXTEEN </s>
-0.3010 <s> SIXTY </s>
-0.3010 <s> START </s>
-0.3010 <s> STOP </s>
-0.3010 <s> SUCCESS BEEP
-0.3010 <s> TEN </s>
-0.3010 <s> THEN </s>
-0.3010 <s> THIRTEEN </s>
-0.3010 <s> THIRTY </s>
-0.3010 <s> THOUSAND </s>
-0.3010 <s> THREE </s>
-0.3010 <s> TRILLION </s>
-0.6021 <s> TURN LEFT
-0.6021 <s> TURN RIGHT
-0.3010 <s> TWELVE </s>
-0.3010 <s> TWENTY </s>
-0.3010 <s> TWO </s>
-0.6021 <s> WAIT </s>
-0.6021 <s> WAIT FOR
-0.3010 <s> YEAR </s>
-0.3010 <s> YEARS </s>
-0.3010 BEEP WITH VALUE
-0.6021 CHECK RESOURCE </s>
-0.6021 CHECK RESOURCE AS
-0.3010 CURRENT LOCATION </s>
-0.3010 EXECUTE PROGRAM </s>
-0.3010 FAIL BEEP </s>
-0.3010 GET CURRENT LOCATION
-0.3010 GO HOME </s>
-0.6990 GO TO ALPHA
-0.6990 GO TO BETA
-1.0000 GO TO HOME
-0.3010 LOOK FOR </s>
-0.3010 MARK ALPHA </s>
-0.3010 MARK BETA </s>
-0.3010 MOVE BACKWARD </s>
-0.3010 MOVE BACKWARDS </s>
-0.3010 MOVE FOWARD </s>
-0.3010 MOVE FOWARDS </s>
-0.3010 MOVE RIGHT </s>
-0.3010 RESOURCE AS </s>
-0.6021 SET MARK ALPHA
-0.6021 SET MARK BETA
-0.6021 SET RESOURCE </s>
-0.6021 SET RESOURCE AS
-0.3010 SUCCESS BEEP </s>
-0.3010 TO ALPHA </s>
-0.3010 TO BETA </s>
-0.3010 TO HOME </s>
-0.3010 TURN LEFT </s>
-0.3010 TURN RIGHT </s>
-0.3010 WAIT FOR </s>
-0.3010 WITH VALUE </s>

\end\
