Language model created by QuickLM on Sat May  9 16:14:21 EDT 2015
Copyright (c) 1996-2010 Carnegie Mellon University and Alexander I. Rudnicky

The model is in standard ARPA format, designed by Doug Paul while he was at MITRE.

The code that was used to produce this language model is available in Open Source.
Please visit http://www.speech.cs.cmu.edu/tools/ for more information

The (fixed) discount mass is 0.5. The backoffs are computed using the ratio method.
This model based on a corpus of 86 sentences and 76 words

\data\
ngram 1=76
ngram 2=155
ngram 3=120

\1-grams:
-0.8579 </s> -0.3010
-0.8579 <s> -0.2230
-2.3153 ALPHA -0.2362
-2.7924 AND -0.2362
-2.7924 AS -0.2362
-2.7924 BACKWARD -0.2362
-2.7924 BACKWARDS -0.2362
-2.1903 BEEP -0.2345
-2.3153 BETA -0.2362
-2.1903 CACHE -0.2362
-2.4914 CANCEL -0.2362
-2.7924 CHECK -0.2996
-2.7924 CLEAR -0.2982
-2.7924 CURRENT -0.3003
-2.4914 EIGHT -0.2362
-2.7924 EIGHTEEN -0.2362
-2.7924 EIGHTY -0.2362
-2.7924 ELEVEN -0.2362
-2.4914 EXECUTE -0.2975
-2.7924 FAIL -0.2982
-2.7924 FIFTEEN -0.2362
-2.7924 FIFTY -0.2362
-2.4914 FIVE -0.2362
-1.6463 FOR -0.2196
-2.7924 FORTY -0.2362
-2.4914 FOUR -0.2362
-2.7924 FOURTEEN -0.2362
-2.4914 FOWARD -0.2362
-2.7924 FOWARDS -0.2362
-2.7924 GET -0.3003
-2.3153 GO -0.2989
-2.7924 HOME -0.2362
-2.7924 HUNDRED -0.2362
-2.4914 LEFT -0.2362
-2.7924 LOCATION -0.2362
-2.7924 LOOK -0.2911
-2.1903 MARK -0.2968
-2.7924 MINUTE -0.2362
-2.7924 MINUTES -0.2362
-2.0142 MOVE -0.2954
-2.4914 NINE -0.2362
-2.7924 NINETEEN -0.2362
-2.7924 NINETY -0.2362
-2.4914 NOW -0.2246
-2.4914 ONE -0.2362
-2.7924 PROGRAM -0.2362
-2.7924 QUAN -0.2362
-2.4914 RESOURCE -0.2362
-2.3153 RIGHT -0.2362
-2.7924 SECOND -0.2362
-2.7924 SECONDS -0.2362
-2.7924 SENTINEL -0.2362
-2.0934 SET -0.2968
-2.4914 SEVEN -0.2362
-2.7924 SEVENTEEN -0.2362
-2.7924 SEVENTY -0.2362
-2.4914 SIX -0.2362
-2.7924 SIXTEEN -0.2362
-2.7924 SIXTY -0.2362
-2.7924 START -0.2982
-2.4914 STOP -0.2329
-2.7924 SUCCESS -0.2982
-2.4914 TEN -0.2362
-2.4914 THEN -0.2246
-2.7924 THIRTEEN -0.2362
-2.7924 THIRTY -0.2362
-2.4914 THREE -0.2362
-2.4914 TO -0.2968
-2.1903 TURN -0.2975
-2.7924 TWELVE -0.2362
-2.7924 TWENTY -0.2362
-2.4914 TWO -0.2362
-2.7924 UNDO -0.2362
-2.4914 VALUE -0.2362
-2.4914 WAIT -0.2246
-2.4914 WITH -0.2996

\2-grams:
-2.2355 <s> AND 0.0000
-2.2355 <s> AS 0.0000
-1.9345 <s> BEEP -0.1761
-1.9345 <s> CANCEL 0.0000
-2.2355 <s> CHECK 0.0000
-2.2355 <s> CLEAR 0.0000
-2.2355 <s> EIGHT 0.0000
-2.2355 <s> EIGHTEEN 0.0000
-2.2355 <s> EIGHTY 0.0000
-2.2355 <s> ELEVEN 0.0000
-1.9345 <s> EXECUTE 0.0000
-2.2355 <s> FAIL 0.0000
-2.2355 <s> FIFTEEN 0.0000
-2.2355 <s> FIFTY 0.0000
-2.2355 <s> FIVE 0.0000
-1.2355 <s> FOR -0.1091
-2.2355 <s> FORTY 0.0000
-2.2355 <s> FOUR 0.0000
-2.2355 <s> FOURTEEN 0.0000
-2.2355 <s> GET 0.0000
-1.7584 <s> GO 0.0000
-2.2355 <s> HUNDRED 0.0000
-2.2355 <s> LOOK 0.0000
-2.2355 <s> MINUTE 0.0000
-2.2355 <s> MINUTES 0.0000
-1.4574 <s> MOVE 0.0000
-2.2355 <s> NINE 0.0000
-2.2355 <s> NINETEEN 0.0000
-2.2355 <s> NINETY 0.0000
-1.9345 <s> NOW 0.0000
-2.2355 <s> ONE 0.0000
-2.2355 <s> QUAN 0.0000
-2.2355 <s> SECOND 0.0000
-2.2355 <s> SECONDS 0.0000
-2.2355 <s> SENTINEL 0.0000
-1.5366 <s> SET 0.0000
-2.2355 <s> SEVEN 0.0000
-2.2355 <s> SEVENTEEN 0.0000
-2.2355 <s> SEVENTY 0.0000
-2.2355 <s> SIX 0.0000
-2.2355 <s> SIXTEEN 0.0000
-2.2355 <s> SIXTY 0.0000
-2.2355 <s> START 0.0000
-1.9345 <s> STOP 0.0000
-2.2355 <s> SUCCESS 0.0000
-2.2355 <s> TEN 0.0000
-1.9345 <s> THEN 0.0000
-2.2355 <s> THIRTEEN 0.0000
-2.2355 <s> THIRTY 0.0000
-2.2355 <s> THREE 0.0000
-1.6335 <s> TURN 0.0000
-2.2355 <s> TWELVE 0.0000
-2.2355 <s> TWENTY 0.0000
-2.2355 <s> TWO 0.0000
-2.2355 <s> UNDO 0.0000
-1.9345 <s> WAIT 0.0000
-0.3010 ALPHA </s> -0.3010
-0.3010 AND </s> -0.3010
-0.3010 AS </s> -0.3010
-0.3010 BACKWARD </s> -0.3010
-0.3010 BACKWARDS </s> -0.3010
-0.6021 BEEP </s> -0.3010
-0.6021 BEEP WITH 0.0000
-0.3010 BETA </s> -0.3010
-0.3010 CACHE </s> -0.3010
-0.3010 CANCEL </s> -0.3010
-0.3010 CHECK RESOURCE 0.0000
-0.3010 CLEAR CACHE 0.0000
-0.3010 CURRENT LOCATION 0.0000
-0.3010 EIGHT </s> -0.3010
-0.3010 EIGHTEEN </s> -0.3010
-0.3010 EIGHTY </s> -0.3010
-0.3010 ELEVEN </s> -0.3010
-0.6021 EXECUTE CACHE 0.0000
-0.6021 EXECUTE PROGRAM 0.0000
-0.3010 FAIL BEEP -0.1761
-0.3010 FIFTEEN </s> -0.3010
-0.3010 FIFTY </s> -0.3010
-0.3010 FIVE </s> -0.3010
-0.8451 FOR </s> -0.3010
-1.4472 FOR EIGHT 0.0000
-1.4472 FOR FIVE 0.0000
-1.4472 FOR FOUR 0.0000
-1.4472 FOR NINE 0.0000
-1.4472 FOR ONE 0.0000
-1.4472 FOR SEVEN 0.0000
-1.4472 FOR SIX 0.0000
-1.4472 FOR TEN 0.0000
-1.4472 FOR THREE 0.0000
-1.4472 FOR TWO 0.0000
-0.3010 FORTY </s> -0.3010
-0.3010 FOUR </s> -0.3010
-0.3010 FOURTEEN </s> -0.3010
-0.3010 FOWARD </s> -0.3010
-0.3010 FOWARDS </s> -0.3010
-0.3010 GET CURRENT 0.0000
-0.7782 GO HOME 0.0000
-0.4771 GO TO 0.0000
-0.3010 HOME </s> -0.3010
-0.3010 HUNDRED </s> -0.3010
-0.3010 LEFT </s> -0.3010
-0.3010 LOCATION </s> -0.3010
-0.3010 LOOK FOR -0.2341
-0.6021 MARK ALPHA 0.0000
-0.6021 MARK BETA 0.0000
-0.3010 MINUTE </s> -0.3010
-0.3010 MINUTES </s> -0.3010
-1.0792 MOVE BACKWARD 0.0000
-1.0792 MOVE BACKWARDS 0.0000
-0.7782 MOVE FOWARD 0.0000
-1.0792 MOVE FOWARDS 0.0000
-1.0792 MOVE RIGHT 0.0000
-0.3010 NINE </s> -0.3010
-0.3010 NINETEEN </s> -0.3010
-0.3010 NINETY </s> -0.3010
-0.6021 NOW </s> -0.3010
-0.6021 NOW FOR -0.2341
-0.3010 ONE </s> -0.3010
-0.3010 PROGRAM </s> -0.3010
-0.3010 QUAN </s> -0.3010
-0.3010 RESOURCE </s> -0.3010
-0.3010 RIGHT </s> -0.3010
-0.3010 SECOND </s> -0.3010
-0.3010 SECONDS </s> -0.3010
-0.3010 SENTINEL </s> -0.3010
-0.3979 SET MARK 0.0000
-1.0000 SET RESOURCE 0.0000
-0.3010 SEVEN </s> -0.3010
-0.3010 SEVENTEEN </s> -0.3010
-0.3010 SEVENTY </s> -0.3010
-0.3010 SIX </s> -0.3010
-0.3010 SIXTEEN </s> -0.3010
-0.3010 SIXTY </s> -0.3010
-0.3010 START CACHE 0.0000
-0.6021 STOP </s> -0.3010
-0.6021 STOP CACHE 0.0000
-0.3010 SUCCESS BEEP -0.1761
-0.3010 TEN </s> -0.3010
-0.6021 THEN </s> -0.3010
-0.6021 THEN FOR -0.2341
-0.3010 THIRTEEN </s> -0.3010
-0.3010 THIRTY </s> -0.3010
-0.3010 THREE </s> -0.3010
-0.6021 TO ALPHA 0.0000
-0.6021 TO BETA 0.0000
-0.6021 TURN LEFT 0.0000
-0.6021 TURN RIGHT 0.0000
-0.3010 TWELVE </s> -0.3010
-0.3010 TWENTY </s> -0.3010
-0.3010 TWO </s> -0.3010
-0.3010 UNDO </s> -0.3010
-0.3010 VALUE </s> -0.3010
-0.6021 WAIT </s> -0.3010
-0.6021 WAIT FOR -0.2341
-0.3010 WITH VALUE 0.0000

\3-grams:
-0.3010 <s> AND </s>
-0.3010 <s> AS </s>
-0.3010 <s> BEEP WITH
-0.3010 <s> CANCEL </s>
-0.3010 <s> CHECK RESOURCE
-0.3010 <s> CLEAR CACHE
-0.3010 <s> EIGHT </s>
-0.3010 <s> EIGHTEEN </s>
-0.3010 <s> EIGHTY </s>
-0.3010 <s> ELEVEN </s>
-0.6021 <s> EXECUTE CACHE
-0.6021 <s> EXECUTE PROGRAM
-0.3010 <s> FAIL BEEP
-0.3010 <s> FIFTEEN </s>
-0.3010 <s> FIFTY </s>
-0.3010 <s> FIVE </s>
-1.3010 <s> FOR EIGHT
-1.3010 <s> FOR FIVE
-1.3010 <s> FOR FOUR
-1.3010 <s> FOR NINE
-1.3010 <s> FOR ONE
-1.3010 <s> FOR SEVEN
-1.3010 <s> FOR SIX
-1.3010 <s> FOR TEN
-1.3010 <s> FOR THREE
-1.3010 <s> FOR TWO
-0.3010 <s> FORTY </s>
-0.3010 <s> FOUR </s>
-0.3010 <s> FOURTEEN </s>
-0.3010 <s> GET CURRENT
-0.7782 <s> GO HOME
-0.4771 <s> GO TO
-0.3010 <s> HUNDRED </s>
-0.3010 <s> LOOK FOR
-0.3010 <s> MINUTE </s>
-0.3010 <s> MINUTES </s>
-1.0792 <s> MOVE BACKWARD
-1.0792 <s> MOVE BACKWARDS
-0.7782 <s> MOVE FOWARD
-1.0792 <s> MOVE FOWARDS
-1.0792 <s> MOVE RIGHT
-0.3010 <s> NINE </s>
-0.3010 <s> NINETEEN </s>
-0.3010 <s> NINETY </s>
-0.6021 <s> NOW </s>
-0.6021 <s> NOW FOR
-0.3010 <s> ONE </s>
-0.3010 <s> QUAN </s>
-0.3010 <s> SECOND </s>
-0.3010 <s> SECONDS </s>
-0.3010 <s> SENTINEL </s>
-0.3979 <s> SET MARK
-1.0000 <s> SET RESOURCE
-0.3010 <s> SEVEN </s>
-0.3010 <s> SEVENTEEN </s>
-0.3010 <s> SEVENTY </s>
-0.3010 <s> SIX </s>
-0.3010 <s> SIXTEEN </s>
-0.3010 <s> SIXTY </s>
-0.3010 <s> START CACHE
-0.6021 <s> STOP </s>
-0.6021 <s> STOP CACHE
-0.3010 <s> SUCCESS BEEP
-0.3010 <s> TEN </s>
-0.6021 <s> THEN </s>
-0.6021 <s> THEN FOR
-0.3010 <s> THIRTEEN </s>
-0.3010 <s> THIRTY </s>
-0.3010 <s> THREE </s>
-0.6021 <s> TURN LEFT
-0.6021 <s> TURN RIGHT
-0.3010 <s> TWELVE </s>
-0.3010 <s> TWENTY </s>
-0.3010 <s> TWO </s>
-0.3010 <s> UNDO </s>
-0.6021 <s> WAIT </s>
-0.6021 <s> WAIT FOR
-0.3010 BEEP WITH VALUE
-0.3010 CHECK RESOURCE </s>
-0.3010 CLEAR CACHE </s>
-0.3010 CURRENT LOCATION </s>
-0.3010 EXECUTE CACHE </s>
-0.3010 EXECUTE PROGRAM </s>
-0.3010 FAIL BEEP </s>
-0.3010 FOR EIGHT </s>
-0.3010 FOR FIVE </s>
-0.3010 FOR FOUR </s>
-0.3010 FOR NINE </s>
-0.3010 FOR ONE </s>
-0.3010 FOR SEVEN </s>
-0.3010 FOR SIX </s>
-0.3010 FOR TEN </s>
-0.3010 FOR THREE </s>
-0.3010 FOR TWO </s>
-0.3010 GET CURRENT LOCATION
-0.3010 GO HOME </s>
-0.6021 GO TO ALPHA
-0.6021 GO TO BETA
-0.3010 LOOK FOR </s>
-0.3010 MARK ALPHA </s>
-0.3010 MARK BETA </s>
-0.3010 MOVE BACKWARD </s>
-0.3010 MOVE BACKWARDS </s>
-0.3010 MOVE FOWARD </s>
-0.3010 MOVE FOWARDS </s>
-0.3010 MOVE RIGHT </s>
-0.3010 NOW FOR </s>
-0.6021 SET MARK ALPHA
-0.6021 SET MARK BETA
-0.3010 SET RESOURCE </s>
-0.3010 START CACHE </s>
-0.3010 STOP CACHE </s>
-0.3010 SUCCESS BEEP </s>
-0.3010 THEN FOR </s>
-0.3010 TO ALPHA </s>
-0.3010 TO BETA </s>
-0.3010 TURN LEFT </s>
-0.3010 TURN RIGHT </s>
-0.3010 WAIT FOR </s>
-0.3010 WITH VALUE </s>

\end\
