Language model created by QuickLM on Wed May  6 14:57:18 EDT 2015
Copyright (c) 1996-2010 Carnegie Mellon University and Alexander I. Rudnicky

The model is in standard ARPA format, designed by Doug Paul while he was at MITRE.

The code that was used to produce this language model is available in Open Source.
Please visit http://www.speech.cs.cmu.edu/tools/ for more information

The (fixed) discount mass is 0.5. The backoffs are computed using the ratio method.
This model based on a corpus of 43 sentences and 39 words

\data\
ngram 1=39
ngram 2=67
ngram 3=58

\1-grams:
-2.5563 + -0.2998
-0.9228 </s> -0.3010
-0.9228 <s> -0.2430
-1.9542 ALPHA -0.2458
-2.2553 AS -0.2458
-2.5563 BACKWARD -0.2458
-2.5563 BACKWARDS -0.2458
-1.9542 BEEP -0.2430
-1.9542 BETA -0.2458
-2.2553 CANCEL -0.2458
-2.2553 CHECK -0.2962
-2.5563 CURRENT -0.2998
-2.2553 EXECUTE -0.2986
-2.5563 FAIL -0.2962
-2.0792 FOR -0.2444
-2.2553 FOWARD -0.2458
-2.5563 FOWARDS -0.2458
-2.5563 GET -0.2998
-1.7112 GO -0.2913
-2.0792 HOME -0.2458
-2.2553 LEFT -0.2458
-2.5563 LOCATION -0.2458
-2.2553 LOOK -0.2974
-1.9542 MARK -0.2913
-1.7782 MOVE -0.2913
-2.2553 PROGRAM -0.2458
-2.5563 QUAN -0.2458
-1.9542 RESOURCE -0.2430
-2.0792 RIGHT -0.2458
-2.5563 SENTINEL -0.2458
-1.7782 SET -0.2913
-2.0792 STOP -0.2458
-2.5563 SUCCESS -0.2962
-2.5563 TIME_EXPRESSION -0.2458
-1.8573 TO -0.2876
-1.9542 TURN -0.2950
-2.2553 VALUE -0.2458
-2.2553 WAIT -0.2417
-2.2553 WITH -0.2986

\2-grams:
-0.3010 + TIME_EXPRESSION 0.0000
-1.6335 <s> BEEP -0.1761
-1.6335 <s> CANCEL 0.0000
-1.6335 <s> CHECK 0.0000
-1.6335 <s> EXECUTE 0.0000
-1.9345 <s> FAIL 0.0000
-1.9345 <s> GET 0.0000
-1.0894 <s> GO 0.0000
-1.6335 <s> LOOK 0.0000
-1.1563 <s> MOVE 0.0000
-1.9345 <s> QUAN 0.0000
-1.9345 <s> SENTINEL 0.0000
-1.1563 <s> SET 0.0000
-1.4574 <s> STOP 0.0000
-1.9345 <s> SUCCESS 0.0000
-1.3324 <s> TURN 0.0000
-1.6335 <s> WAIT 0.0000
-0.3010 ALPHA </s> -0.3010
-0.3010 AS </s> -0.3010
-0.3010 BACKWARD </s> -0.3010
-0.3010 BACKWARDS </s> -0.3010
-0.6021 BEEP </s> -0.3010
-0.6021 BEEP WITH 0.0000
-0.3010 BETA </s> -0.3010
-0.3010 CANCEL </s> -0.3010
-0.3010 CHECK RESOURCE 0.0000
-0.3010 CURRENT LOCATION 0.0000
-0.3010 EXECUTE PROGRAM 0.0000
-0.3010 FAIL BEEP -0.1761
-0.7782 FOR + 0.0000
-0.4771 FOR </s> -0.3010
-0.3010 FOWARD </s> -0.3010
-0.3010 FOWARDS </s> -0.3010
-0.3010 GET CURRENT 0.0000
-0.8451 GO HOME 0.0000
-0.4472 GO TO 0.0000
-0.3010 HOME </s> -0.3010
-0.3010 LEFT </s> -0.3010
-0.3010 LOCATION </s> -0.3010
-0.3010 LOOK FOR -0.1249
-0.6021 MARK ALPHA 0.0000
-0.6021 MARK BETA 0.0000
-1.0792 MOVE BACKWARD 0.0000
-1.0792 MOVE BACKWARDS 0.0000
-0.7782 MOVE FOWARD 0.0000
-1.0792 MOVE FOWARDS 0.0000
-1.0792 MOVE RIGHT 0.0000
-0.3010 PROGRAM </s> -0.3010
-0.3010 QUAN </s> -0.3010
-0.6021 RESOURCE </s> -0.3010
-0.6021 RESOURCE AS 0.0000
-0.3010 RIGHT </s> -0.3010
-0.3010 SENTINEL </s> -0.3010
-0.4771 SET MARK 0.0000
-0.7782 SET RESOURCE 0.0000
-0.3010 STOP </s> -0.3010
-0.3010 SUCCESS BEEP -0.1761
-0.3010 TIME_EXPRESSION </s> -0.3010
-0.6990 TO ALPHA 0.0000
-0.6990 TO BETA 0.0000
-1.0000 TO HOME 0.0000
-0.6021 TURN LEFT 0.0000
-0.6021 TURN RIGHT 0.0000
-0.3010 VALUE </s> -0.3010
-0.6021 WAIT </s> -0.3010
-0.6021 WAIT FOR -0.2218
-0.3010 WITH VALUE 0.0000

\3-grams:
-0.3010 + TIME_EXPRESSION </s>
-0.3010 <s> BEEP WITH
-0.3010 <s> CANCEL </s>
-0.3010 <s> CHECK RESOURCE
-0.3010 <s> EXECUTE PROGRAM
-0.3010 <s> FAIL BEEP
-0.3010 <s> GET CURRENT
-0.8451 <s> GO HOME
-0.4472 <s> GO TO
-0.3010 <s> LOOK FOR
-1.0792 <s> MOVE BACKWARD
-1.0792 <s> MOVE BACKWARDS
-0.7782 <s> MOVE FOWARD
-1.0792 <s> MOVE FOWARDS
-1.0792 <s> MOVE RIGHT
-0.3010 <s> QUAN </s>
-0.3010 <s> SENTINEL </s>
-0.4771 <s> SET MARK
-0.7782 <s> SET RESOURCE
-0.3010 <s> STOP </s>
-0.3010 <s> SUCCESS BEEP
-0.6021 <s> TURN LEFT
-0.6021 <s> TURN RIGHT
-0.6021 <s> WAIT </s>
-0.6021 <s> WAIT FOR
-0.3010 BEEP WITH VALUE
-0.6021 CHECK RESOURCE </s>
-0.6021 CHECK RESOURCE AS
-0.3010 CURRENT LOCATION </s>
-0.3010 EXECUTE PROGRAM </s>
-0.3010 FAIL BEEP </s>
-0.3010 FOR + TIME_EXPRESSION
-0.3010 GET CURRENT LOCATION
-0.3010 GO HOME </s>
-0.6990 GO TO ALPHA
-0.6990 GO TO BETA
-1.0000 GO TO HOME
-0.3010 LOOK FOR </s>
-0.3010 MARK ALPHA </s>
-0.3010 MARK BETA </s>
-0.3010 MOVE BACKWARD </s>
-0.3010 MOVE BACKWARDS </s>
-0.3010 MOVE FOWARD </s>
-0.3010 MOVE FOWARDS </s>
-0.3010 MOVE RIGHT </s>
-0.3010 RESOURCE AS </s>
-0.6021 SET MARK ALPHA
-0.6021 SET MARK BETA
-0.6021 SET RESOURCE </s>
-0.6021 SET RESOURCE AS
-0.3010 SUCCESS BEEP </s>
-0.3010 TO ALPHA </s>
-0.3010 TO BETA </s>
-0.3010 TO HOME </s>
-0.3010 TURN LEFT </s>
-0.3010 TURN RIGHT </s>
-0.3010 WAIT FOR +
-0.3010 WITH VALUE </s>

\end\
