Language model created by QuickLM on Sat May  9 13:44:21 EDT 2015
Copyright (c) 1996-2010 Carnegie Mellon University and Alexander I. Rudnicky

The model is in standard ARPA format, designed by Doug Paul while he was at MITRE.

The code that was used to produce this language model is available in Open Source.
Please visit http://www.speech.cs.cmu.edu/tools/ for more information

The (fixed) discount mass is 0.5. The backoffs are computed using the ratio method.
This model based on a corpus of 97 sentences and 87 words

\data\
ngram 1=87
ngram 2=177
ngram 3=131

\1-grams:
-0.8496 </s> -0.3010
-0.8496 <s> -0.2229
-2.3592 ALPHA -0.2348
-2.8363 AND -0.2348
-2.8363 AS -0.2348
-2.8363 BACKWARD -0.2348
-2.8363 BACKWARDS -0.2348
-2.2343 BEEP -0.2333
-2.3592 BETA -0.2348
-2.8363 BILLION -0.2348
-2.2343 CACHE -0.2348
-2.5353 CANCEL -0.2348
-2.8363 CHECK -0.2998
-2.8363 CLEAR -0.2985
-2.8363 CURRENT -0.3004
-2.8363 DAY -0.2348
-2.8363 DAYS -0.2348
-2.5353 EIGHT -0.2348
-2.8363 EIGHTEEN -0.2348
-2.8363 EIGHTY -0.2348
-2.8363 ELEVEN -0.2348
-2.5353 EXECUTE -0.2979
-2.8363 FAIL -0.2985
-2.8363 FIFTEEN -0.2348
-2.8363 FIFTY -0.2348
-2.5353 FIVE -0.2348
-1.6902 FOR -0.2198
-2.8363 FORTY -0.2348
-2.5353 FOUR -0.2348
-2.8363 FOURTEEN -0.2348
-2.5353 FOWARD -0.2348
-2.8363 FOWARDS -0.2348
-2.8363 GET -0.3004
-2.3592 GO -0.2991
-2.8363 HOME -0.2348
-2.8363 HOUR -0.2348
-2.8363 HOURS -0.2348
-2.8363 HUNDRED -0.2348
-2.5353 LEFT -0.2348
-2.8363 LOCATION -0.2348
-2.8363 LOOK -0.2921
-2.2343 MARK -0.2972
-2.8363 MILLION -0.2348
-2.8363 MINUTE -0.2348
-2.8363 MINUTES -0.2348
-2.8363 MONTH -0.2348
-2.8363 MONTHS -0.2348
-2.0582 MOVE -0.2959
-2.5353 NINE -0.2348
-2.8363 NINETEEN -0.2348
-2.8363 NINETY -0.2348
-2.5353 NOW -0.2244
-2.5353 ONE -0.2348
-2.8363 PROGRAM -0.2348
-2.8363 QUAN -0.2348
-2.5353 RESOURCE -0.2348
-2.3592 RIGHT -0.2348
-2.8363 SECOND -0.2348
-2.8363 SECONDS -0.2348
-2.8363 SENTINEL -0.2348
-2.1374 SET -0.2972
-2.5353 SEVEN -0.2348
-2.8363 SEVENTEEN -0.2348
-2.8363 SEVENTY -0.2348
-2.5353 SIX -0.2348
-2.8363 SIXTEEN -0.2348
-2.8363 SIXTY -0.2348
-2.8363 START -0.2985
-2.5353 STOP -0.2319
-2.8363 SUCCESS -0.2985
-2.5353 TEN -0.2348
-2.5353 THEN -0.2244
-2.8363 THIRTEEN -0.2348
-2.8363 THIRTY -0.2348
-2.8363 THOUSAND -0.2348
-2.5353 THREE -0.2348
-2.5353 TO -0.2972
-2.8363 TRILLION -0.2348
-2.2343 TURN -0.2979
-2.8363 TWELVE -0.2348
-2.8363 TWENTY -0.2348
-2.5353 TWO -0.2348
-2.5353 VALUE -0.2348
-2.5353 WAIT -0.2244
-2.5353 WITH -0.2998
-2.8363 YEAR -0.2348
-2.8363 YEARS -0.2348

\2-grams:
-2.2878 <s> AND 0.0000
-2.2878 <s> AS 0.0000
-1.9868 <s> BEEP -0.1761
-2.2878 <s> BILLION 0.0000
-1.9868 <s> CANCEL 0.0000
-2.2878 <s> CHECK 0.0000
-2.2878 <s> CLEAR 0.0000
-2.2878 <s> DAY 0.0000
-2.2878 <s> DAYS 0.0000
-2.2878 <s> EIGHT 0.0000
-2.2878 <s> EIGHTEEN 0.0000
-2.2878 <s> EIGHTY 0.0000
-2.2878 <s> ELEVEN 0.0000
-1.9868 <s> EXECUTE 0.0000
-2.2878 <s> FAIL 0.0000
-2.2878 <s> FIFTEEN 0.0000
-2.2878 <s> FIFTY 0.0000
-2.2878 <s> FIVE 0.0000
-1.2878 <s> FOR -0.1091
-2.2878 <s> FORTY 0.0000
-2.2878 <s> FOUR 0.0000
-2.2878 <s> FOURTEEN 0.0000
-2.2878 <s> GET 0.0000
-1.8107 <s> GO 0.0000
-2.2878 <s> HOUR 0.0000
-2.2878 <s> HOURS 0.0000
-2.2878 <s> HUNDRED 0.0000
-2.2878 <s> LOOK 0.0000
-2.2878 <s> MILLION 0.0000
-2.2878 <s> MINUTE 0.0000
-2.2878 <s> MINUTES 0.0000
-2.2878 <s> MONTH 0.0000
-2.2878 <s> MONTHS 0.0000
-1.5097 <s> MOVE 0.0000
-2.2878 <s> NINE 0.0000
-2.2878 <s> NINETEEN 0.0000
-2.2878 <s> NINETY 0.0000
-1.9868 <s> NOW 0.0000
-2.2878 <s> ONE 0.0000
-2.2878 <s> QUAN 0.0000
-2.2878 <s> SECOND 0.0000
-2.2878 <s> SECONDS 0.0000
-2.2878 <s> SENTINEL 0.0000
-1.5888 <s> SET 0.0000
-2.2878 <s> SEVEN 0.0000
-2.2878 <s> SEVENTEEN 0.0000
-2.2878 <s> SEVENTY 0.0000
-2.2878 <s> SIX 0.0000
-2.2878 <s> SIXTEEN 0.0000
-2.2878 <s> SIXTY 0.0000
-2.2878 <s> START 0.0000
-1.9868 <s> STOP 0.0000
-2.2878 <s> SUCCESS 0.0000
-2.2878 <s> TEN 0.0000
-1.9868 <s> THEN 0.0000
-2.2878 <s> THIRTEEN 0.0000
-2.2878 <s> THIRTY 0.0000
-2.2878 <s> THOUSAND 0.0000
-2.2878 <s> THREE 0.0000
-2.2878 <s> TRILLION 0.0000
-1.6857 <s> TURN 0.0000
-2.2878 <s> TWELVE 0.0000
-2.2878 <s> TWENTY 0.0000
-2.2878 <s> TWO 0.0000
-1.9868 <s> WAIT 0.0000
-2.2878 <s> YEAR 0.0000
-2.2878 <s> YEARS 0.0000
-0.3010 ALPHA </s> -0.3010
-0.3010 AND </s> -0.3010
-0.3010 AS </s> -0.3010
-0.3010 BACKWARD </s> -0.3010
-0.3010 BACKWARDS </s> -0.3010
-0.6021 BEEP </s> -0.3010
-0.6021 BEEP WITH 0.0000
-0.3010 BETA </s> -0.3010
-0.3010 BILLION </s> -0.3010
-0.3010 CACHE </s> -0.3010
-0.3010 CANCEL </s> -0.3010
-0.3010 CHECK RESOURCE 0.0000
-0.3010 CLEAR CACHE 0.0000
-0.3010 CURRENT LOCATION 0.0000
-0.3010 DAY </s> -0.3010
-0.3010 DAYS </s> -0.3010
-0.3010 EIGHT </s> -0.3010
-0.3010 EIGHTEEN </s> -0.3010
-0.3010 EIGHTY </s> -0.3010
-0.3010 ELEVEN </s> -0.3010
-0.6021 EXECUTE CACHE 0.0000
-0.6021 EXECUTE PROGRAM 0.0000
-0.3010 FAIL BEEP -0.1761
-0.3010 FIFTEEN </s> -0.3010
-0.3010 FIFTY </s> -0.3010
-0.3010 FIVE </s> -0.3010
-0.8451 FOR </s> -0.3010
-1.4472 FOR EIGHT 0.0000
-1.4472 FOR FIVE 0.0000
-1.4472 FOR FOUR 0.0000
-1.4472 FOR NINE 0.0000
-1.4472 FOR ONE 0.0000
-1.4472 FOR SEVEN 0.0000
-1.4472 FOR SIX 0.0000
-1.4472 FOR TEN 0.0000
-1.4472 FOR THREE 0.0000
-1.4472 FOR TWO 0.0000
-0.3010 FORTY </s> -0.3010
-0.3010 FOUR </s> -0.3010
-0.3010 FOURTEEN </s> -0.3010
-0.3010 FOWARD </s> -0.3010
-0.3010 FOWARDS </s> -0.3010
-0.3010 GET CURRENT 0.0000
-0.7782 GO HOME 0.0000
-0.4771 GO TO 0.0000
-0.3010 HOME </s> -0.3010
-0.3010 HOUR </s> -0.3010
-0.3010 HOURS </s> -0.3010
-0.3010 HUNDRED </s> -0.3010
-0.3010 LEFT </s> -0.3010
-0.3010 LOCATION </s> -0.3010
-0.3010 LOOK FOR -0.2341
-0.6021 MARK ALPHA 0.0000
-0.6021 MARK BETA 0.0000
-0.3010 MILLION </s> -0.3010
-0.3010 MINUTE </s> -0.3010
-0.3010 MINUTES </s> -0.3010
-0.3010 MONTH </s> -0.3010
-0.3010 MONTHS </s> -0.3010
-1.0792 MOVE BACKWARD 0.0000
-1.0792 MOVE BACKWARDS 0.0000
-0.7782 MOVE FOWARD 0.0000
-1.0792 MOVE FOWARDS 0.0000
-1.0792 MOVE RIGHT 0.0000
-0.3010 NINE </s> -0.3010
-0.3010 NINETEEN </s> -0.3010
-0.3010 NINETY </s> -0.3010
-0.6021 NOW </s> -0.3010
-0.6021 NOW FOR -0.2341
-0.3010 ONE </s> -0.3010
-0.3010 PROGRAM </s> -0.3010
-0.3010 QUAN </s> -0.3010
-0.3010 RESOURCE </s> -0.3010
-0.3010 RIGHT </s> -0.3010
-0.3010 SECOND </s> -0.3010
-0.3010 SECONDS </s> -0.3010
-0.3010 SENTINEL </s> -0.3010
-0.3979 SET MARK 0.0000
-1.0000 SET RESOURCE 0.0000
-0.3010 SEVEN </s> -0.3010
-0.3010 SEVENTEEN </s> -0.3010
-0.3010 SEVENTY </s> -0.3010
-0.3010 SIX </s> -0.3010
-0.3010 SIXTEEN </s> -0.3010
-0.3010 SIXTY </s> -0.3010
-0.3010 START CACHE 0.0000
-0.6021 STOP </s> -0.3010
-0.6021 STOP CACHE 0.0000
-0.3010 SUCCESS BEEP -0.1761
-0.3010 TEN </s> -0.3010
-0.6021 THEN </s> -0.3010
-0.6021 THEN FOR -0.2341
-0.3010 THIRTEEN </s> -0.3010
-0.3010 THIRTY </s> -0.3010
-0.3010 THOUSAND </s> -0.3010
-0.3010 THREE </s> -0.3010
-0.6021 TO ALPHA 0.0000
-0.6021 TO BETA 0.0000
-0.3010 TRILLION </s> -0.3010
-0.6021 TURN LEFT 0.0000
-0.6021 TURN RIGHT 0.0000
-0.3010 TWELVE </s> -0.3010
-0.3010 TWENTY </s> -0.3010
-0.3010 TWO </s> -0.3010
-0.3010 VALUE </s> -0.3010
-0.6021 WAIT </s> -0.3010
-0.6021 WAIT FOR -0.2341
-0.3010 WITH VALUE 0.0000
-0.3010 YEAR </s> -0.3010
-0.3010 YEARS </s> -0.3010

\3-grams:
-0.3010 <s> AND </s>
-0.3010 <s> AS </s>
-0.3010 <s> BEEP WITH
-0.3010 <s> BILLION </s>
-0.3010 <s> CANCEL </s>
-0.3010 <s> CHECK RESOURCE
-0.3010 <s> CLEAR CACHE
-0.3010 <s> DAY </s>
-0.3010 <s> DAYS </s>
-0.3010 <s> EIGHT </s>
-0.3010 <s> EIGHTEEN </s>
-0.3010 <s> EIGHTY </s>
-0.3010 <s> ELEVEN </s>
-0.6021 <s> EXECUTE CACHE
-0.6021 <s> EXECUTE PROGRAM
-0.3010 <s> FAIL BEEP
-0.3010 <s> FIFTEEN </s>
-0.3010 <s> FIFTY </s>
-0.3010 <s> FIVE </s>
-1.3010 <s> FOR EIGHT
-1.3010 <s> FOR FIVE
-1.3010 <s> FOR FOUR
-1.3010 <s> FOR NINE
-1.3010 <s> FOR ONE
-1.3010 <s> FOR SEVEN
-1.3010 <s> FOR SIX
-1.3010 <s> FOR TEN
-1.3010 <s> FOR THREE
-1.3010 <s> FOR TWO
-0.3010 <s> FORTY </s>
-0.3010 <s> FOUR </s>
-0.3010 <s> FOURTEEN </s>
-0.3010 <s> GET CURRENT
-0.7782 <s> GO HOME
-0.4771 <s> GO TO
-0.3010 <s> HOUR </s>
-0.3010 <s> HOURS </s>
-0.3010 <s> HUNDRED </s>
-0.3010 <s> LOOK FOR
-0.3010 <s> MILLION </s>
-0.3010 <s> MINUTE </s>
-0.3010 <s> MINUTES </s>
-0.3010 <s> MONTH </s>
-0.3010 <s> MONTHS </s>
-1.0792 <s> MOVE BACKWARD
-1.0792 <s> MOVE BACKWARDS
-0.7782 <s> MOVE FOWARD
-1.0792 <s> MOVE FOWARDS
-1.0792 <s> MOVE RIGHT
-0.3010 <s> NINE </s>
-0.3010 <s> NINETEEN </s>
-0.3010 <s> NINETY </s>
-0.6021 <s> NOW </s>
-0.6021 <s> NOW FOR
-0.3010 <s> ONE </s>
-0.3010 <s> QUAN </s>
-0.3010 <s> SECOND </s>
-0.3010 <s> SECONDS </s>
-0.3010 <s> SENTINEL </s>
-0.3979 <s> SET MARK
-1.0000 <s> SET RESOURCE
-0.3010 <s> SEVEN </s>
-0.3010 <s> SEVENTEEN </s>
-0.3010 <s> SEVENTY </s>
-0.3010 <s> SIX </s>
-0.3010 <s> SIXTEEN </s>
-0.3010 <s> SIXTY </s>
-0.3010 <s> START CACHE
-0.6021 <s> STOP </s>
-0.6021 <s> STOP CACHE
-0.3010 <s> SUCCESS BEEP
-0.3010 <s> TEN </s>
-0.6021 <s> THEN </s>
-0.6021 <s> THEN FOR
-0.3010 <s> THIRTEEN </s>
-0.3010 <s> THIRTY </s>
-0.3010 <s> THOUSAND </s>
-0.3010 <s> THREE </s>
-0.3010 <s> TRILLION </s>
-0.6021 <s> TURN LEFT
-0.6021 <s> TURN RIGHT
-0.3010 <s> TWELVE </s>
-0.3010 <s> TWENTY </s>
-0.3010 <s> TWO </s>
-0.6021 <s> WAIT </s>
-0.6021 <s> WAIT FOR
-0.3010 <s> YEAR </s>
-0.3010 <s> YEARS </s>
-0.3010 BEEP WITH VALUE
-0.3010 CHECK RESOURCE </s>
-0.3010 CLEAR CACHE </s>
-0.3010 CURRENT LOCATION </s>
-0.3010 EXECUTE CACHE </s>
-0.3010 EXECUTE PROGRAM </s>
-0.3010 FAIL BEEP </s>
-0.3010 FOR EIGHT </s>
-0.3010 FOR FIVE </s>
-0.3010 FOR FOUR </s>
-0.3010 FOR NINE </s>
-0.3010 FOR ONE </s>
-0.3010 FOR SEVEN </s>
-0.3010 FOR SIX </s>
-0.3010 FOR TEN </s>
-0.3010 FOR THREE </s>
-0.3010 FOR TWO </s>
-0.3010 GET CURRENT LOCATION
-0.3010 GO HOME </s>
-0.6021 GO TO ALPHA
-0.6021 GO TO BETA
-0.3010 LOOK FOR </s>
-0.3010 MARK ALPHA </s>
-0.3010 MARK BETA </s>
-0.3010 MOVE BACKWARD </s>
-0.3010 MOVE BACKWARDS </s>
-0.3010 MOVE FOWARD </s>
-0.3010 MOVE FOWARDS </s>
-0.3010 MOVE RIGHT </s>
-0.3010 NOW FOR </s>
-0.6021 SET MARK ALPHA
-0.6021 SET MARK BETA
-0.3010 SET RESOURCE </s>
-0.3010 START CACHE </s>
-0.3010 STOP CACHE </s>
-0.3010 SUCCESS BEEP </s>
-0.3010 THEN FOR </s>
-0.3010 TO ALPHA </s>
-0.3010 TO BETA </s>
-0.3010 TURN LEFT </s>
-0.3010 TURN RIGHT </s>
-0.3010 WAIT FOR </s>
-0.3010 WITH VALUE </s>

\end\
