Language model created by QuickLM on Sat May  9 13:22:20 EDT 2015
Copyright (c) 1996-2010 Carnegie Mellon University and Alexander I. Rudnicky

The model is in standard ARPA format, designed by Doug Paul while he was at MITRE.

The code that was used to produce this language model is available in Open Source.
Please visit http://www.speech.cs.cmu.edu/tools/ for more information

The (fixed) discount mass is 0.5. The backoffs are computed using the ratio method.
This model based on a corpus of 45 sentences and 41 words

\data\
ngram 1=41
ngram 2=72
ngram 3=60

\1-grams:
-0.9126 </s> -0.3010
-0.9126 <s> -0.2417
-1.9638 ALPHA -0.2444
-2.2648 AS -0.2444
-2.5658 BACKWARD -0.2444
-2.5658 BACKWARDS -0.2444
-1.9638 BEEP -0.2417
-1.9638 BETA -0.2444
-2.5658 CACHE -0.2444
-2.2648 CANCEL -0.2444
-2.2648 CHECK -0.2963
-2.5658 CLEAR -0.2444
-2.5658 CURRENT -0.2998
-2.5658 END -0.2444
-2.2648 EXECUTE -0.2987
-2.5658 FAIL -0.2963
-2.0887 FOR -0.2444
-2.2648 FOWARD -0.2444
-2.5658 FOWARDS -0.2444
-2.5658 GET -0.2998
-1.7207 GO -0.2915
-2.0887 HOME -0.2444
-2.2648 LEFT -0.2444
-2.5658 LOCATION -0.2444
-2.2648 LOOK -0.2975
-1.9638 MARK -0.2915
-1.7877 MOVE -0.2915
-2.2648 PROGRAM -0.2444
-2.5658 QUAN -0.2444
-1.9638 RESOURCE -0.2417
-2.0887 RIGHT -0.2444
-2.5658 SENTINEL -0.2444
-1.7877 SET -0.2915
-2.5658 START -0.2444
-2.5658 STOP -0.2444
-2.5658 SUCCESS -0.2963
-1.8669 TO -0.2879
-1.9638 TURN -0.2951
-2.2648 VALUE -0.2444
-2.2648 WAIT -0.2403
-2.2648 WITH -0.2987

\2-grams:
-1.6532 <s> BEEP -0.1761
-1.9542 <s> CACHE 0.0000
-1.6532 <s> CANCEL 0.0000
-1.6532 <s> CHECK 0.0000
-1.9542 <s> CLEAR 0.0000
-1.9542 <s> END 0.0000
-1.6532 <s> EXECUTE 0.0000
-1.9542 <s> FAIL 0.0000
-1.9542 <s> GET 0.0000
-1.1091 <s> GO 0.0000
-1.6532 <s> LOOK 0.0000
-1.1761 <s> MOVE 0.0000
-1.9542 <s> QUAN 0.0000
-1.9542 <s> SENTINEL 0.0000
-1.1761 <s> SET 0.0000
-1.9542 <s> START 0.0000
-1.9542 <s> STOP 0.0000
-1.9542 <s> SUCCESS 0.0000
-1.3522 <s> TURN 0.0000
-1.6532 <s> WAIT 0.0000
-0.3010 ALPHA </s> -0.3010
-0.3010 AS </s> -0.3010
-0.3010 BACKWARD </s> -0.3010
-0.3010 BACKWARDS </s> -0.3010
-0.6021 BEEP </s> -0.3010
-0.6021 BEEP WITH 0.0000
-0.3010 BETA </s> -0.3010
-0.3010 CACHE </s> -0.3010
-0.3010 CANCEL </s> -0.3010
-0.3010 CHECK RESOURCE 0.0000
-0.3010 CLEAR </s> -0.3010
-0.3010 CURRENT LOCATION 0.0000
-0.3010 END </s> -0.3010
-0.3010 EXECUTE PROGRAM 0.0000
-0.3010 FAIL BEEP -0.1761
-0.3010 FOR </s> -0.3010
-0.3010 FOWARD </s> -0.3010
-0.3010 FOWARDS </s> -0.3010
-0.3010 GET CURRENT 0.0000
-0.8451 GO HOME 0.0000
-0.4472 GO TO 0.0000
-0.3010 HOME </s> -0.3010
-0.3010 LEFT </s> -0.3010
-0.3010 LOCATION </s> -0.3010
-0.3010 LOOK FOR 0.0000
-0.6021 MARK ALPHA 0.0000
-0.6021 MARK BETA 0.0000
-1.0792 MOVE BACKWARD 0.0000
-1.0792 MOVE BACKWARDS 0.0000
-0.7782 MOVE FOWARD 0.0000
-1.0792 MOVE FOWARDS 0.0000
-1.0792 MOVE RIGHT 0.0000
-0.3010 PROGRAM </s> -0.3010
-0.3010 QUAN </s> -0.3010
-0.6021 RESOURCE </s> -0.3010
-0.6021 RESOURCE AS 0.0000
-0.3010 RIGHT </s> -0.3010
-0.3010 SENTINEL </s> -0.3010
-0.4771 SET MARK 0.0000
-0.7782 SET RESOURCE 0.0000
-0.3010 START </s> -0.3010
-0.3010 STOP </s> -0.3010
-0.3010 SUCCESS BEEP -0.1761
-0.6990 TO ALPHA 0.0000
-0.6990 TO BETA 0.0000
-1.0000 TO HOME 0.0000
-0.6021 TURN LEFT 0.0000
-0.6021 TURN RIGHT 0.0000
-0.3010 VALUE </s> -0.3010
-0.6021 WAIT </s> -0.3010
-0.6021 WAIT FOR 0.0000
-0.3010 WITH VALUE 0.0000

\3-grams:
-0.3010 <s> BEEP WITH
-0.3010 <s> CACHE </s>
-0.3010 <s> CANCEL </s>
-0.3010 <s> CHECK RESOURCE
-0.3010 <s> CLEAR </s>
-0.3010 <s> END </s>
-0.3010 <s> EXECUTE PROGRAM
-0.3010 <s> FAIL BEEP
-0.3010 <s> GET CURRENT
-0.8451 <s> GO HOME
-0.4472 <s> GO TO
-0.3010 <s> LOOK FOR
-1.0792 <s> MOVE BACKWARD
-1.0792 <s> MOVE BACKWARDS
-0.7782 <s> MOVE FOWARD
-1.0792 <s> MOVE FOWARDS
-1.0792 <s> MOVE RIGHT
-0.3010 <s> QUAN </s>
-0.3010 <s> SENTINEL </s>
-0.4771 <s> SET MARK
-0.7782 <s> SET RESOURCE
-0.3010 <s> START </s>
-0.3010 <s> STOP </s>
-0.3010 <s> SUCCESS BEEP
-0.6021 <s> TURN LEFT
-0.6021 <s> TURN RIGHT
-0.6021 <s> WAIT </s>
-0.6021 <s> WAIT FOR
-0.3010 BEEP WITH VALUE
-0.6021 CHECK RESOURCE </s>
-0.6021 CHECK RESOURCE AS
-0.3010 CURRENT LOCATION </s>
-0.3010 EXECUTE PROGRAM </s>
-0.3010 FAIL BEEP </s>
-0.3010 GET CURRENT LOCATION
-0.3010 GO HOME </s>
-0.6990 GO TO ALPHA
-0.6990 GO TO BETA
-1.0000 GO TO HOME
-0.3010 LOOK FOR </s>
-0.3010 MARK ALPHA </s>
-0.3010 MARK BETA </s>
-0.3010 MOVE BACKWARD </s>
-0.3010 MOVE BACKWARDS </s>
-0.3010 MOVE FOWARD </s>
-0.3010 MOVE FOWARDS </s>
-0.3010 MOVE RIGHT </s>
-0.3010 RESOURCE AS </s>
-0.6021 SET MARK ALPHA
-0.6021 SET MARK BETA
-0.6021 SET RESOURCE </s>
-0.6021 SET RESOURCE AS
-0.3010 SUCCESS BEEP </s>
-0.3010 TO ALPHA </s>
-0.3010 TO BETA </s>
-0.3010 TO HOME </s>
-0.3010 TURN LEFT </s>
-0.3010 TURN RIGHT </s>
-0.3010 WAIT FOR </s>
-0.3010 WITH VALUE </s>

\end\
