Language model created by QuickLM on Mon May 11 10:32:48 EDT 2015
Copyright (c) 1996-2010 Carnegie Mellon University and Alexander I. Rudnicky

The model is in standard ARPA format, designed by Doug Paul while he was at MITRE.

The code that was used to produce this language model is available in Open Source.
Please visit http://www.speech.cs.cmu.edu/tools/ for more information

The (fixed) discount mass is 0.5. The backoffs are computed using the ratio method.
This model based on a corpus of 131 sentences and 105 words

\data\
ngram 1=105
ngram 2=230
ngram 3=195

\1-grams:
-0.8888 </s> -0.3010
-0.8888 <s> -0.2208
-3.0060 ACTION -0.2410
-2.5289 ALPHA -0.2410
-3.0060 AND -0.2410
-3.0060 BACKWARD -0.2410
-3.0060 BACKWARDS -0.2410
-2.5289 BEEP -0.2405
-2.5289 BETA -0.2410
-2.0518 BUFFER -0.2410
-2.7050 CANCEL -0.2410
-3.0060 CHECK -0.3002
-2.4040 CLEAR -0.2950
-3.0060 CONSOLE -0.2410
-3.0060 CURRENT -0.3006
-2.4040 DEFINE -0.2954
-3.0060 DELIVER -0.2410
-2.7050 DO -0.2993
-2.7050 EDIT -0.2950
-2.7050 EIGHT -0.2410
-3.0060 EIGHTEEN -0.2410
-3.0060 EIGHTY -0.2410
-3.0060 ELEVEN -0.2410
-2.1029 END -0.2880
-3.0060 EQUEALS -0.2410
-2.1029 EXECUTE -0.2325
-2.4040 FAIL -0.2355
-2.5289 FAILURE -0.2370
-3.0060 FALSE -0.2410
-3.0060 FIFTEEN -0.2410
-3.0060 FIFTY -0.2410
-2.7050 FIVE -0.2410
-2.7050 FOLLOW -0.2405
-3.0060 FOLLOWING -0.2410
-1.8299 FOR -0.2295
-3.0060 FORTY -0.2410
-2.7050 FOUR -0.2410
-3.0060 FOURTEEN -0.2410
-2.7050 FOWARD -0.2410
-3.0060 FOWARDS -0.2410
-3.0060 GET -0.3006
-2.4040 GO -0.2985
-2.7050 HOME -0.2410
-3.0060 HUNDRED -0.2410
-2.0518 IF -0.2963
-3.0060 IS -0.2410
-2.7050 KEYWORD -0.2410
-3.0060 KEYWORDS -0.2410
-2.7050 LEFT -0.2410
-3.0060 LOCATION -0.2410
-2.5289 LOOK -0.2946
-2.4040 MARK -0.2985
-3.0060 ME -0.2410
-3.0060 MINUTE -0.2410
-3.0060 MINUTES -0.2410
-2.3071 MISSION -0.2400
-2.7050 MODIFIER -0.2410
-2.2279 MOVE -0.2976
-3.0060 NEW -0.2976
-2.7050 NINE -0.2410
-3.0060 NINETEEN -0.2410
-3.0060 NINETY -0.2410
-2.1029 NODE -0.2410
-2.4040 NOW -0.2330
-2.7050 ONE -0.2410
-3.0060 PATROL -0.2410
-3.0060 PRINT -0.2993
-2.4040 PROGRAM -0.2410
-3.0060 PROGRAMS -0.2410
-2.7050 QUAN -0.2410
-2.7050 QUEUE -0.2405
-2.7050 RECOMPILE -0.2989
-2.5289 RIGHT -0.2410
-3.0060 SECOND -0.2410
-3.0060 SECONDS -0.2410
-3.0060 SENTINEL -0.2410
-2.3071 SET -0.2985
-2.7050 SEVEN -0.2410
-3.0060 SEVENTEEN -0.2410
-3.0060 SEVENTY -0.2410
-3.0060 SHOW -0.2972
-2.7050 SIX -0.2410
-3.0060 SIXTEEN -0.2410
-3.0060 SIXTY -0.2410
-2.2279 START -0.2924
-3.0060 STENGEL -0.2410
-2.7050 STOP -0.2365
-2.4040 SUCCESS -0.2355
-2.7050 TEN -0.2410
-2.1029 THEN -0.2295
-3.0060 THIRTEEN -0.2410
-3.0060 THIRTY -0.2410
-2.7050 THREE -0.2410
-3.0060 TIME -0.2410
-2.7050 TIMEOUT -0.2410
-2.4040 TO -0.2972
-3.0060 TRUE -0.2410
-2.4040 TURN -0.2989
-3.0060 TWELVE -0.2410
-3.0060 TWENTY -0.2410
-2.7050 TWO -0.2410
-3.0060 UNDO -0.2410
-3.0060 VALUE -0.2410
-3.0060 WAIT -0.2410
-3.0060 WITH -0.3006

\2-grams:
-2.4183 <s> ACTION 0.0000
-2.4183 <s> AND 0.0000
-2.4183 <s> BEEP -0.2218
-2.1173 <s> CANCEL 0.0000
-2.4183 <s> CHECK 0.0000
-1.8162 <s> CLEAR 0.0000
-2.4183 <s> CURRENT 0.0000
-1.8162 <s> DEFINE 0.0000
-2.4183 <s> DELIVER 0.0000
-2.1173 <s> DO 0.0000
-2.1173 <s> EDIT 0.0000
-2.4183 <s> EIGHT 0.0000
-2.4183 <s> EIGHTEEN 0.0000
-2.4183 <s> EIGHTY 0.0000
-2.4183 <s> ELEVEN 0.0000
-1.5152 <s> END 0.0000
-2.1173 <s> EXECUTE -0.2430
-2.4183 <s> FAIL -0.2430
-2.4183 <s> FALSE 0.0000
-2.4183 <s> FIFTEEN 0.0000
-2.4183 <s> FIFTY 0.0000
-2.4183 <s> FIVE 0.0000
-2.4183 <s> FOLLOW -0.1761
-1.4183 <s> FOR -0.1249
-2.4183 <s> FORTY 0.0000
-2.4183 <s> FOUR 0.0000
-2.4183 <s> FOURTEEN 0.0000
-2.4183 <s> GET 0.0000
-1.8162 <s> GO 0.0000
-2.4183 <s> HUNDRED 0.0000
-1.4641 <s> IF 0.0000
-1.9412 <s> LOOK 0.0000
-2.4183 <s> MINUTE 0.0000
-2.4183 <s> MINUTES 0.0000
-1.6402 <s> MOVE 0.0000
-2.4183 <s> NEW 0.0000
-2.4183 <s> NINE 0.0000
-2.4183 <s> NINETEEN 0.0000
-2.4183 <s> NINETY 0.0000
-2.1173 <s> NOW -0.0969
-2.4183 <s> ONE 0.0000
-2.4183 <s> PATROL 0.0000
-2.4183 <s> PRINT 0.0000
-2.4183 <s> QUAN 0.0000
-2.1173 <s> RECOMPILE 0.0000
-2.4183 <s> SECOND 0.0000
-2.4183 <s> SECONDS 0.0000
-2.4183 <s> SENTINEL 0.0000
-1.7193 <s> SET 0.0000
-2.4183 <s> SEVEN 0.0000
-2.4183 <s> SEVENTEEN 0.0000
-2.4183 <s> SEVENTY 0.0000
-2.4183 <s> SHOW 0.0000
-2.4183 <s> SIX 0.0000
-2.4183 <s> SIXTEEN 0.0000
-2.4183 <s> SIXTY 0.0000
-1.7193 <s> START 0.0000
-2.1173 <s> STOP 0.0000
-2.4183 <s> SUCCESS -0.2430
-2.4183 <s> TEN 0.0000
-2.1173 <s> THEN -0.2430
-2.4183 <s> THIRTEEN 0.0000
-2.4183 <s> THIRTY 0.0000
-2.4183 <s> THREE 0.0000
-2.4183 <s> TIME 0.0000
-2.4183 <s> TRUE 0.0000
-1.8162 <s> TURN 0.0000
-2.4183 <s> TWELVE 0.0000
-2.4183 <s> TWENTY 0.0000
-2.4183 <s> TWO 0.0000
-2.4183 <s> UNDO 0.0000
-2.4183 <s> WAIT 0.0000
-0.3010 ACTION </s> -0.3010
-0.3010 ALPHA </s> -0.3010
-0.3010 AND </s> -0.3010
-0.3010 BACKWARD </s> -0.3010
-0.3010 BACKWARDS </s> -0.3010
-0.4771 BEEP </s> -0.3010
-0.7782 BEEP WITH 0.0000
-0.3010 BETA </s> -0.3010
-0.3010 BUFFER </s> -0.3010
-0.3010 CANCEL </s> -0.3010
-0.3010 CHECK KEYWORD 0.0000
-0.6021 CLEAR BUFFER 0.0000
-0.6021 CLEAR MISSION -0.2041
-0.3010 CONSOLE </s> -0.3010
-0.3010 CURRENT LOCATION 0.0000
-0.9031 DEFINE MISSION -0.1461
-0.9031 DEFINE MODIFIER 0.0000
-0.9031 DEFINE PROGRAM 0.0000
-0.9031 DEFINE TIMEOUT 0.0000
-0.3010 DELIVER </s> -0.3010
-0.3010 DO NOW -0.0969
-0.6021 EDIT NODE 0.0000
-0.6021 EDIT START -0.2218
-0.3010 EIGHT </s> -0.3010
-0.3010 EIGHTEEN </s> -0.3010
-0.3010 EIGHTY </s> -0.3010
-0.3010 ELEVEN </s> -0.3010
-1.2041 END BUFFER 0.0000
-0.9031 END MISSION -0.1461
-1.2041 END MODIFIER 0.0000
-1.2041 END NODE 0.0000
-0.9031 END PROGRAM 0.0000
-1.2041 END TIMEOUT 0.0000
-0.3010 EQUEALS </s> -0.3010
-0.7270 EXECUTE </s> -0.3010
-0.9031 EXECUTE BUFFER 0.0000
-0.7270 EXECUTE NODE 0.0000
-0.9031 FAIL </s> -0.3010
-0.9031 FAIL BEEP -0.1249
-0.6021 FAIL THEN -0.0969
-0.7782 FAILURE </s> -0.3010
-0.4771 FAILURE THEN -0.0969
-0.3010 FALSE </s> -0.3010
-0.3010 FIFTEEN </s> -0.3010
-0.3010 FIFTY </s> -0.3010
-0.3010 FIVE </s> -0.3010
-0.6021 FOLLOW </s> -0.3010
-0.6021 FOLLOW ME 0.0000
-0.3010 FOLLOWING </s> -0.3010
-1.0000 FOR </s> -0.3010
-1.4771 FOR EIGHT 0.0000
-1.4771 FOR FIVE 0.0000
-1.4771 FOR FOUR 0.0000
-1.4771 FOR NINE 0.0000
-1.4771 FOR ONE 0.0000
-1.4771 FOR QUAN 0.0000
-1.4771 FOR SEVEN 0.0000
-1.4771 FOR SIX 0.0000
-1.4771 FOR STENGEL 0.0000
-1.4771 FOR TEN 0.0000
-1.4771 FOR THREE 0.0000
-1.4771 FOR TWO 0.0000
-0.3010 FORTY </s> -0.3010
-0.3010 FOUR </s> -0.3010
-0.3010 FOURTEEN </s> -0.3010
-0.3010 FOWARD </s> -0.3010
-0.3010 FOWARDS </s> -0.3010
-0.3010 GET KEYWORDS 0.0000
-0.9031 GO HOME 0.0000
-0.4260 GO TO -0.0969
-0.3010 HOME </s> -0.3010
-0.3010 HUNDRED </s> -0.3010
-0.7782 IF FAIL -0.0969
-0.7782 IF FAILURE 0.0000
-0.7782 IF SUCCESS -0.0969
-0.3010 IS </s> -0.3010
-0.3010 KEYWORD </s> -0.3010
-0.3010 KEYWORDS </s> -0.3010
-0.3010 LEFT </s> -0.3010
-0.3010 LOCATION </s> -0.3010
-0.3010 LOOK FOR -0.2218
-0.6021 MARK ALPHA 0.0000
-0.6021 MARK BETA 0.0000
-0.3010 ME </s> -0.3010
-0.3010 MINUTE </s> -0.3010
-0.3010 MINUTES </s> -0.3010
-0.5229 MISSION </s> -0.3010
-0.6990 MISSION QUEUE 0.0000
-0.3010 MODIFIER </s> -0.3010
-1.0792 MOVE BACKWARD 0.0000
-1.0792 MOVE BACKWARDS 0.0000
-0.7782 MOVE FOWARD 0.0000
-1.0792 MOVE FOWARDS 0.0000
-1.0792 MOVE RIGHT 0.0000
-0.3010 NEW NODE 0.0000
-0.3010 NINE </s> -0.3010
-0.3010 NINETEEN </s> -0.3010
-0.3010 NINETY </s> -0.3010
-0.3010 NODE </s> -0.3010
-0.6021 NOW </s> -0.3010
-0.9031 NOW FOR -0.2553
-0.9031 NOW IS 0.0000
-0.3010 ONE </s> -0.3010
-0.3010 PATROL </s> -0.3010
-0.3010 PRINT TO -0.2430
-0.3010 PROGRAM </s> -0.3010
-0.3010 PROGRAMS </s> -0.3010
-0.3010 QUAN </s> -0.3010
-0.6021 QUEUE </s> -0.3010
-0.6021 QUEUE EQUEALS 0.0000
-0.6021 RECOMPILE PROGRAM 0.0000
-0.6021 RECOMPILE PROGRAMS 0.0000
-0.3010 RIGHT </s> -0.3010
-0.3010 SECOND </s> -0.3010
-0.3010 SECONDS </s> -0.3010
-0.3010 SENTINEL </s> -0.3010
-1.0000 SET KEYWORD 0.0000
-0.3979 SET MARK 0.0000
-0.3010 SEVEN </s> -0.3010
-0.3010 SEVENTEEN </s> -0.3010
-0.3010 SEVENTY </s> -0.3010
-0.3010 SHOW BUFFER 0.0000
-0.3010 SIX </s> -0.3010
-0.3010 SIXTEEN </s> -0.3010
-0.3010 SIXTY </s> -0.3010
-0.7782 START BUFFER 0.0000
-1.0792 START FOLLOW -0.1761
-1.0792 START FOLLOWING 0.0000
-0.7782 START NODE 0.0000
-0.3010 STENGEL </s> -0.3010
-0.6021 STOP </s> -0.3010
-0.6021 STOP BUFFER 0.0000
-0.9031 SUCCESS </s> -0.3010
-0.9031 SUCCESS BEEP -0.1249
-0.6021 SUCCESS THEN -0.0969
-0.3010 TEN </s> -0.3010
-1.2041 THEN </s> -0.3010
-0.4260 THEN EXECUTE -0.0969
-1.2041 THEN FOR -0.2553
-0.3010 THIRTEEN </s> -0.3010
-0.3010 THIRTY </s> -0.3010
-0.3010 THREE </s> -0.3010
-0.3010 TIME </s> -0.3010
-0.3010 TIMEOUT </s> -0.3010
-0.9031 TO ALPHA 0.0000
-0.9031 TO BETA 0.0000
-0.9031 TO CONSOLE 0.0000
-0.9031 TO HOME 0.0000
-0.3010 TRUE </s> -0.3010
-0.6021 TURN LEFT 0.0000
-0.6021 TURN RIGHT 0.0000
-0.3010 TWELVE </s> -0.3010
-0.3010 TWENTY </s> -0.3010
-0.3010 TWO </s> -0.3010
-0.3010 UNDO </s> -0.3010
-0.3010 VALUE </s> -0.3010
-0.3010 WAIT </s> -0.3010
-0.3010 WITH VALUE 0.0000

\3-grams:
-0.3010 <s> ACTION </s>
-0.3010 <s> AND </s>
-0.3010 <s> BEEP WITH
-0.3010 <s> CANCEL </s>
-0.3010 <s> CHECK KEYWORD
-0.6021 <s> CLEAR BUFFER
-0.6021 <s> CLEAR MISSION
-0.3010 <s> CURRENT LOCATION
-0.9031 <s> DEFINE MISSION
-0.9031 <s> DEFINE MODIFIER
-0.9031 <s> DEFINE PROGRAM
-0.9031 <s> DEFINE TIMEOUT
-0.3010 <s> DELIVER </s>
-0.3010 <s> DO NOW
-0.6021 <s> EDIT NODE
-0.6021 <s> EDIT START
-0.3010 <s> EIGHT </s>
-0.3010 <s> EIGHTEEN </s>
-0.3010 <s> EIGHTY </s>
-0.3010 <s> ELEVEN </s>
-1.2041 <s> END BUFFER
-0.9031 <s> END MISSION
-1.2041 <s> END MODIFIER
-1.2041 <s> END NODE
-0.9031 <s> END PROGRAM
-1.2041 <s> END TIMEOUT
-0.3010 <s> EXECUTE BUFFER
-0.3010 <s> FAIL BEEP
-0.3010 <s> FALSE </s>
-0.3010 <s> FIFTEEN </s>
-0.3010 <s> FIFTY </s>
-0.3010 <s> FIVE </s>
-0.3010 <s> FOLLOW ME
-1.3010 <s> FOR EIGHT
-1.3010 <s> FOR FIVE
-1.3010 <s> FOR FOUR
-1.3010 <s> FOR NINE
-1.3010 <s> FOR ONE
-1.3010 <s> FOR SEVEN
-1.3010 <s> FOR SIX
-1.3010 <s> FOR TEN
-1.3010 <s> FOR THREE
-1.3010 <s> FOR TWO
-0.3010 <s> FORTY </s>
-0.3010 <s> FOUR </s>
-0.3010 <s> FOURTEEN </s>
-0.3010 <s> GET KEYWORDS
-0.9031 <s> GO HOME
-0.4260 <s> GO TO
-0.3010 <s> HUNDRED </s>
-0.7782 <s> IF FAIL
-0.7782 <s> IF FAILURE
-0.7782 <s> IF SUCCESS
-0.3010 <s> LOOK FOR
-0.3010 <s> MINUTE </s>
-0.3010 <s> MINUTES </s>
-1.0792 <s> MOVE BACKWARD
-1.0792 <s> MOVE BACKWARDS
-0.7782 <s> MOVE FOWARD
-1.0792 <s> MOVE FOWARDS
-1.0792 <s> MOVE RIGHT
-0.3010 <s> NEW NODE
-0.3010 <s> NINE </s>
-0.3010 <s> NINETEEN </s>
-0.3010 <s> NINETY </s>
-0.6021 <s> NOW </s>
-0.6021 <s> NOW FOR
-0.3010 <s> ONE </s>
-0.3010 <s> PATROL </s>
-0.3010 <s> PRINT TO
-0.3010 <s> QUAN </s>
-0.6021 <s> RECOMPILE PROGRAM
-0.6021 <s> RECOMPILE PROGRAMS
-0.3010 <s> SECOND </s>
-0.3010 <s> SECONDS </s>
-0.3010 <s> SENTINEL </s>
-1.0000 <s> SET KEYWORD
-0.3979 <s> SET MARK
-0.3010 <s> SEVEN </s>
-0.3010 <s> SEVENTEEN </s>
-0.3010 <s> SEVENTY </s>
-0.3010 <s> SHOW BUFFER
-0.3010 <s> SIX </s>
-0.3010 <s> SIXTEEN </s>
-0.3010 <s> SIXTY </s>
-0.6990 <s> START BUFFER
-1.0000 <s> START FOLLOW
-1.0000 <s> START FOLLOWING
-1.0000 <s> START NODE
-0.6021 <s> STOP </s>
-0.6021 <s> STOP BUFFER
-0.3010 <s> SUCCESS BEEP
-0.3010 <s> TEN </s>
-0.6021 <s> THEN </s>
-0.6021 <s> THEN FOR
-0.3010 <s> THIRTEEN </s>
-0.3010 <s> THIRTY </s>
-0.3010 <s> THREE </s>
-0.3010 <s> TIME </s>
-0.3010 <s> TRUE </s>
-0.6021 <s> TURN LEFT
-0.6021 <s> TURN RIGHT
-0.3010 <s> TWELVE </s>
-0.3010 <s> TWENTY </s>
-0.3010 <s> TWO </s>
-0.3010 <s> UNDO </s>
-0.3010 <s> WAIT </s>
-0.3010 BEEP WITH VALUE
-0.3010 CHECK KEYWORD </s>
-0.3010 CLEAR BUFFER </s>
-0.3010 CLEAR MISSION QUEUE
-0.3010 CURRENT LOCATION </s>
-0.3010 DEFINE MISSION </s>
-0.3010 DEFINE MODIFIER </s>
-0.3010 DEFINE PROGRAM </s>
-0.3010 DEFINE TIMEOUT </s>
-0.6021 DO NOW </s>
-0.6021 DO NOW IS
-0.3010 EDIT NODE </s>
-0.3010 EDIT START NODE
-0.3010 END BUFFER </s>
-0.3010 END MISSION </s>
-0.3010 END MODIFIER </s>
-0.3010 END NODE </s>
-0.3010 END PROGRAM </s>
-0.3010 END TIMEOUT </s>
-0.3010 EXECUTE BUFFER </s>
-0.3010 EXECUTE NODE </s>
-0.3010 FAIL BEEP </s>
-0.3010 FAIL THEN EXECUTE
-0.3010 FAILURE THEN EXECUTE
-0.3010 FOLLOW ME </s>
-0.3010 FOR EIGHT </s>
-0.3010 FOR FIVE </s>
-0.3010 FOR FOUR </s>
-0.3010 FOR NINE </s>
-0.3010 FOR ONE </s>
-0.3010 FOR QUAN </s>
-0.3010 FOR SEVEN </s>
-0.3010 FOR SIX </s>
-0.3010 FOR STENGEL </s>
-0.3010 FOR TEN </s>
-0.3010 FOR THREE </s>
-0.3010 FOR TWO </s>
-0.3010 GET KEYWORDS </s>
-0.3010 GO HOME </s>
-0.7782 GO TO ALPHA
-0.7782 GO TO BETA
-0.7782 GO TO HOME
-0.7782 IF FAIL </s>
-0.4771 IF FAIL THEN
-0.7782 IF FAILURE </s>
-0.4771 IF FAILURE THEN
-0.7782 IF SUCCESS </s>
-0.4771 IF SUCCESS THEN
-0.7782 LOOK FOR </s>
-0.7782 LOOK FOR QUAN
-0.7782 LOOK FOR STENGEL
-0.3010 MARK ALPHA </s>
-0.3010 MARK BETA </s>
-0.6021 MISSION QUEUE </s>
-0.6021 MISSION QUEUE EQUEALS
-0.3010 MOVE BACKWARD </s>
-0.3010 MOVE BACKWARDS </s>
-0.3010 MOVE FOWARD </s>
-0.3010 MOVE FOWARDS </s>
-0.3010 MOVE RIGHT </s>
-0.3010 NEW NODE </s>
-0.3010 NOW FOR </s>
-0.3010 NOW IS </s>
-0.3010 PRINT TO CONSOLE
-0.3010 QUEUE EQUEALS </s>
-0.3010 RECOMPILE PROGRAM </s>
-0.3010 RECOMPILE PROGRAMS </s>
-0.3010 SET KEYWORD </s>
-0.6021 SET MARK ALPHA
-0.6021 SET MARK BETA
-0.3010 SHOW BUFFER </s>
-0.3010 START BUFFER </s>
-0.3010 START FOLLOW </s>
-0.3010 START FOLLOWING </s>
-0.3010 START NODE </s>
-0.3010 STOP BUFFER </s>
-0.3010 SUCCESS BEEP </s>
-0.3010 SUCCESS THEN EXECUTE
-0.6021 THEN EXECUTE </s>
-0.6021 THEN EXECUTE NODE
-0.3010 THEN FOR </s>
-0.3010 TO ALPHA </s>
-0.3010 TO BETA </s>
-0.3010 TO CONSOLE </s>
-0.3010 TO HOME </s>
-0.3010 TURN LEFT </s>
-0.3010 TURN RIGHT </s>
-0.3010 WITH VALUE </s>

\end\
