Language model created by QuickLM on Sat Mar 14 14:21:32 EDT 2015
Copyright (c) 1996-2010 Carnegie Mellon University and Alexander I. Rudnicky

The model is in standard ARPA format, designed by Doug Paul while he was at MITRE.

The code that was used to produce this language model is available in Open Source.
Please visit http://www.speech.cs.cmu.edu/tools/ for more information

The (fixed) discount mass is 0.5. The backoffs are computed using the ratio method.
This model based on a corpus of 3 sentences and 7 words

\data\
ngram 1=7
ngram 2=8
ngram 3=6

\1-grams:
-0.9379 </s> -0.3010
-0.9379 <s> -0.2478
-1.4150 ALPHA -0.2478
-1.4150 BETA -0.2478
-1.4150 CANCEL -0.2478
-1.1139 GO -0.2663
-1.1139 TO -0.2663

\2-grams:
-0.7782 <s> CANCEL 0.0000
-0.4771 <s> GO 0.0000
-0.3010 ALPHA </s> -0.3010
-0.3010 BETA </s> -0.3010
-0.3010 CANCEL </s> -0.3010
-0.3010 GO TO 0.0000
-0.6021 TO ALPHA 0.0000
-0.6021 TO BETA 0.0000

\3-grams:
-0.3010 <s> CANCEL </s>
-0.3010 <s> GO TO
-0.6021 GO TO ALPHA
-0.6021 GO TO BETA
-0.3010 TO ALPHA </s>
-0.3010 TO BETA </s>

\end\
